digraph Tree {
node [shape=box] ;
0 [label="X[1] <= 31.5\ngini = 0.749\nsamples = 46026\nvalue = [9717, 1943, 691, 46, 19419, 730, 1289, 3746, 618\n6245, 116, 680, 184, 5, 561, 25, 1, 10]"] ;
1 [label="X[0] <= 0.5\ngini = 0.525\nsamples = 12291\nvalue = [8187, 1202, 48, 12, 370, 208, 230, 1717, 253, 31\n0, 23, 3, 0, 4, 0, 0, 3]"] ;
0 -> 1 [labeldistance=2.5, labelangle=45, headlabel="True"] ;
2 [label="X[6] <= 49.5\ngini = 0.436\nsamples = 1003\nvalue = [0, 739, 0, 0, 0, 78, 56, 0, 111, 6, 0, 11, 1\n0, 1, 0, 0, 0]"] ;
1 -> 2 ;
3 [label="X[5] <= 706.5\ngini = 0.414\nsamples = 984\nvalue = [0, 739, 0, 0, 0, 78, 56, 0, 111, 0, 0, 0, 0\n0, 0, 0, 0, 0]"] ;
2 -> 3 ;
4 [label="X[1] <= 1.5\ngini = 0.567\nsamples = 359\nvalue = [0, 222, 0, 0, 0, 42, 36, 0, 59, 0, 0, 0, 0\n0, 0, 0, 0, 0]"] ;
3 -> 4 ;
5 [label="X[5] <= 606.5\ngini = 0.365\nsamples = 80\nvalue = [0, 63, 0, 0, 0, 5, 6, 0, 6, 0, 0, 0, 0, 0\n0, 0, 0, 0]"] ;
4 -> 5 ;
6 [label="X[8] <= 5857.5\ngini = 0.612\nsamples = 7\nvalue = [0, 3, 0, 0, 0, 1, 3, 0, 0, 0, 0, 0, 0, 0\n0, 0, 0, 0]"] ;
5 -> 6 ;
7 [label="gini = 0.0\nsamples = 1\nvalue = [0, 0, 0, 0, 0, 1, 0, 0, 0, 0, 0, 0, 0, 0\n0, 0, 0, 0]"] ;
6 -> 7 ;
8 [label="X[2] <= 99.0\ngini = 0.5\nsamples = 6\nvalue = [0, 3, 0, 0, 0, 0, 3, 0, 0, 0, 0, 0, 0, 0\n0, 0, 0, 0]"] ;
6 -> 8 ;
9 [label="gini = 0.0\nsamples = 1\nvalue = [0, 1, 0, 0, 0, 0, 0, 0, 0, 0, 0, 0, 0, 0\n0, 0, 0, 0]"] ;
8 -> 9 ;
10 [label="X[5] <= 575.5\ngini = 0.48\nsamples = 5\nvalue = [0, 2, 0, 0, 0, 0, 3, 0, 0, 0, 0, 0, 0, 0\n0, 0, 0, 0]"] ;
8 -> 10 ;
11 [label="X[10] <= 3.95\ngini = 0.444\nsamples = 3\nvalue = [0, 2, 0, 0, 0, 0, 1, 0, 0, 0, 0, 0, 0, 0\n0, 0, 0, 0]"] ;
10 -> 11 ;
12 [label="gini = 0.0\nsamples = 1\nvalue = [0, 0, 0, 0, 0, 0, 1, 0, 0, 0, 0, 0, 0, 0\n0, 0, 0, 0]"] ;
11 -> 12 ;
13 [label="gini = 0.0\nsamples = 2\nvalue = [0, 2, 0, 0, 0, 0, 0, 0, 0, 0, 0, 0, 0, 0\n0, 0, 0, 0]"] ;
11 -> 13 ;
14 [label="gini = 0.0\nsamples = 2\nvalue = [0, 0, 0, 0, 0, 0, 2, 0, 0, 0, 0, 0, 0, 0\n0, 0, 0, 0]"] ;
10 -> 14 ;
15 [label="X[2] <= 98.5\ngini = 0.313\nsamples = 73\nvalue = [0, 60, 0, 0, 0, 4, 3, 0, 6, 0, 0, 0, 0, 0\n0, 0, 0, 0]"] ;
5 -> 15 ;
16 [label="gini = 0.0\nsamples = 1\nvalue = [0, 0, 0, 0, 0, 0, 1, 0, 0, 0, 0, 0, 0, 0\n0, 0, 0, 0]"] ;
15 -> 16 ;
17 [label="X[4] <= 1876.5\ngini = 0.295\nsamples = 72\nvalue = [0, 60, 0, 0, 0, 4, 2, 0, 6, 0, 0, 0, 0, 0\n0, 0, 0, 0]"] ;
15 -> 17 ;
18 [label="X[4] <= 1839.5\ngini = 0.235\nsamples = 62\nvalue = [0, 54, 0, 0, 0, 4, 1, 0, 3, 0, 0, 0, 0, 0\n0, 0, 0, 0]"] ;
17 -> 18 ;
19 [label="X[4] <= 1838.5\ngini = 0.5\nsamples = 2\nvalue = [0, 1, 0, 0, 0, 1, 0, 0, 0, 0, 0, 0, 0, 0\n0, 0, 0, 0]"] ;
18 -> 19 ;
20 [label="gini = 0.0\nsamples = 1\nvalue = [0, 1, 0, 0, 0, 0, 0, 0, 0, 0, 0, 0, 0, 0\n0, 0, 0, 0]"] ;
19 -> 20 ;
21 [label="gini = 0.0\nsamples = 1\nvalue = [0, 0, 0, 0, 0, 1, 0, 0, 0, 0, 0, 0, 0, 0\n0, 0, 0, 0]"] ;
19 -> 21 ;
22 [label="X[5] <= 696.0\ngini = 0.214\nsamples = 60\nvalue = [0, 53, 0, 0, 0, 3, 1, 0, 3, 0, 0, 0, 0, 0\n0, 0, 0, 0]"] ;
18 -> 22 ;
23 [label="X[10] <= 3.75\ngini = 0.182\nsamples = 51\nvalue = [0, 46, 0, 0, 0, 3, 1, 0, 1, 0, 0, 0, 0, 0\n0, 0, 0, 0]"] ;
22 -> 23 ;
24 [label="X[5] <= 647.5\ngini = 0.444\nsamples = 3\nvalue = [0, 2, 0, 0, 0, 1, 0, 0, 0, 0, 0, 0, 0, 0\n0, 0, 0, 0]"] ;
23 -> 24 ;
25 [label="gini = 0.0\nsamples = 1\nvalue = [0, 0, 0, 0, 0, 1, 0, 0, 0, 0, 0, 0, 0, 0\n0, 0, 0, 0]"] ;
24 -> 25 ;
26 [label="gini = 0.0\nsamples = 2\nvalue = [0, 2, 0, 0, 0, 0, 0, 0, 0, 0, 0, 0, 0, 0\n0, 0, 0, 0]"] ;
24 -> 26 ;
27 [label="X[5] <= 648.5\ngini = 0.157\nsamples = 48\nvalue = [0, 44, 0, 0, 0, 2, 1, 0, 1, 0, 0, 0, 0, 0\n0, 0, 0, 0]"] ;
23 -> 27 ;
28 [label="gini = 0.0\nsamples = 13\nvalue = [0, 13, 0, 0, 0, 0, 0, 0, 0, 0, 0, 0, 0, 0\n0, 0, 0, 0]"] ;
27 -> 28 ;
29 [label="X[5] <= 651.0\ngini = 0.211\nsamples = 35\nvalue = [0, 31, 0, 0, 0, 2, 1, 0, 1, 0, 0, 0, 0, 0\n0, 0, 0, 0]"] ;
27 -> 29 ;
30 [label="gini = 0.5\nsamples = 2\nvalue = [0, 1, 0, 0, 0, 0, 0, 0, 1, 0, 0, 0, 0, 0\n0, 0, 0, 0]"] ;
29 -> 30 ;
31 [label="X[1] <= 0.5\ngini = 0.169\nsamples = 33\nvalue = [0, 30, 0, 0, 0, 2, 1, 0, 0, 0, 0, 0, 0, 0\n0, 0, 0, 0]"] ;
29 -> 31 ;
32 [label="X[10] <= 4.5\ngini = 0.127\nsamples = 30\nvalue = [0, 28, 0, 0, 0, 1, 1, 0, 0, 0, 0, 0, 0, 0\n0, 0, 0, 0]"] ;
31 -> 32 ;
33 [label="X[5] <= 685.5\ngini = 0.08\nsamples = 24\nvalue = [0, 23, 0, 0, 0, 1, 0, 0, 0, 0, 0, 0, 0, 0\n0, 0, 0, 0]"] ;
32 -> 33 ;
34 [label="gini = 0.0\nsamples = 17\nvalue = [0, 17, 0, 0, 0, 0, 0, 0, 0, 0, 0, 0, 0, 0\n0, 0, 0, 0]"] ;
33 -> 34 ;
35 [label="X[5] <= 687.5\ngini = 0.245\nsamples = 7\nvalue = [0, 6, 0, 0, 0, 1, 0, 0, 0, 0, 0, 0, 0, 0\n0, 0, 0, 0]"] ;
33 -> 35 ;
36 [label="gini = 0.0\nsamples = 1\nvalue = [0, 0, 0, 0, 0, 1, 0, 0, 0, 0, 0, 0, 0, 0\n0, 0, 0, 0]"] ;
35 -> 36 ;
37 [label="gini = 0.0\nsamples = 6\nvalue = [0, 6, 0, 0, 0, 0, 0, 0, 0, 0, 0, 0, 0, 0\n0, 0, 0, 0]"] ;
35 -> 37 ;
38 [label="X[10] <= 4.9\ngini = 0.278\nsamples = 6\nvalue = [0, 5, 0, 0, 0, 0, 1, 0, 0, 0, 0, 0, 0, 0\n0, 0, 0, 0]"] ;
32 -> 38 ;
39 [label="gini = 0.444\nsamples = 3\nvalue = [0, 2, 0, 0, 0, 0, 1, 0, 0, 0, 0, 0, 0, 0\n0, 0, 0, 0]"] ;
38 -> 39 ;
40 [label="gini = 0.0\nsamples = 3\nvalue = [0, 3, 0, 0, 0, 0, 0, 0, 0, 0, 0, 0, 0, 0\n0, 0, 0, 0]"] ;
38 -> 40 ;
41 [label="X[8] <= 5910.5\ngini = 0.444\nsamples = 3\nvalue = [0, 2, 0, 0, 0, 1, 0, 0, 0, 0, 0, 0, 0, 0\n0, 0, 0, 0]"] ;
31 -> 41 ;
42 [label="gini = 0.0\nsamples = 2\nvalue = [0, 2, 0, 0, 0, 0, 0, 0, 0, 0, 0, 0, 0, 0\n0, 0, 0, 0]"] ;
41 -> 42 ;
43 [label="gini = 0.0\nsamples = 1\nvalue = [0, 0, 0, 0, 0, 1, 0, 0, 0, 0, 0, 0, 0, 0\n0, 0, 0, 0]"] ;
41 -> 43 ;
44 [label="X[10] <= 4.25\ngini = 0.346\nsamples = 9\nvalue = [0, 7, 0, 0, 0, 0, 0, 0, 2, 0, 0, 0, 0, 0\n0, 0, 0, 0]"] ;
22 -> 44 ;
45 [label="gini = 0.0\nsamples = 1\nvalue = [0, 1, 0, 0, 0, 0, 0, 0, 0, 0, 0, 0, 0, 0\n0, 0, 0, 0]"] ;
44 -> 45 ;
46 [label="X[1] <= 0.5\ngini = 0.375\nsamples = 8\nvalue = [0, 6, 0, 0, 0, 0, 0, 0, 2, 0, 0, 0, 0, 0\n0, 0, 0, 0]"] ;
44 -> 46 ;
47 [label="X[5] <= 698.5\ngini = 0.408\nsamples = 7\nvalue = [0, 5, 0, 0, 0, 0, 0, 0, 2, 0, 0, 0, 0, 0\n0, 0, 0, 0]"] ;
46 -> 47 ;
48 [label="gini = 0.5\nsamples = 2\nvalue = [0, 1, 0, 0, 0, 0, 0, 0, 1, 0, 0, 0, 0, 0\n0, 0, 0, 0]"] ;
47 -> 48 ;
49 [label="X[10] <= 4.35\ngini = 0.32\nsamples = 5\nvalue = [0, 4, 0, 0, 0, 0, 0, 0, 1, 0, 0, 0, 0, 0\n0, 0, 0, 0]"] ;
47 -> 49 ;
50 [label="X[5] <= 703.0\ngini = 0.375\nsamples = 4\nvalue = [0, 3, 0, 0, 0, 0, 0, 0, 1, 0, 0, 0, 0, 0\n0, 0, 0, 0]"] ;
49 -> 50 ;
51 [label="gini = 0.0\nsamples = 1\nvalue = [0, 1, 0, 0, 0, 0, 0, 0, 0, 0, 0, 0, 0, 0\n0, 0, 0, 0]"] ;
50 -> 51 ;
52 [label="gini = 0.444\nsamples = 3\nvalue = [0, 2, 0, 0, 0, 0, 0, 0, 1, 0, 0, 0, 0, 0\n0, 0, 0, 0]"] ;
50 -> 52 ;
53 [label="gini = 0.0\nsamples = 1\nvalue = [0, 1, 0, 0, 0, 0, 0, 0, 0, 0, 0, 0, 0, 0\n0, 0, 0, 0]"] ;
49 -> 53 ;
54 [label="gini = 0.0\nsamples = 1\nvalue = [0, 1, 0, 0, 0, 0, 0, 0, 0, 0, 0, 0, 0, 0\n0, 0, 0, 0]"] ;
46 -> 54 ;
55 [label="X[5] <= 633.0\ngini = 0.54\nsamples = 10\nvalue = [0, 6, 0, 0, 0, 0, 1, 0, 3, 0, 0, 0, 0, 0\n0, 0, 0, 0]"] ;
17 -> 55 ;
56 [label="X[5] <= 622.5\ngini = 0.245\nsamples = 7\nvalue = [0, 6, 0, 0, 0, 0, 0, 0, 1, 0, 0, 0, 0, 0\n0, 0, 0, 0]"] ;
55 -> 56 ;
57 [label="gini = 0.0\nsamples = 4\nvalue = [0, 4, 0, 0, 0, 0, 0, 0, 0, 0, 0, 0, 0, 0\n0, 0, 0, 0]"] ;
56 -> 57 ;
58 [label="X[10] <= 4.9\ngini = 0.444\nsamples = 3\nvalue = [0, 2, 0, 0, 0, 0, 0, 0, 1, 0, 0, 0, 0, 0\n0, 0, 0, 0]"] ;
56 -> 58 ;
59 [label="gini = 0.0\nsamples = 1\nvalue = [0, 1, 0, 0, 0, 0, 0, 0, 0, 0, 0, 0, 0, 0\n0, 0, 0, 0]"] ;
58 -> 59 ;
60 [label="gini = 0.5\nsamples = 2\nvalue = [0, 1, 0, 0, 0, 0, 0, 0, 1, 0, 0, 0, 0, 0\n0, 0, 0, 0]"] ;
58 -> 60 ;
61 [label="X[4] <= 1877.5\ngini = 0.444\nsamples = 3\nvalue = [0, 0, 0, 0, 0, 0, 1, 0, 2, 0, 0, 0, 0, 0\n0, 0, 0, 0]"] ;
55 -> 61 ;
62 [label="X[5] <= 671.0\ngini = 0.5\nsamples = 2\nvalue = [0, 0, 0, 0, 0, 0, 1, 0, 1, 0, 0, 0, 0, 0\n0, 0, 0, 0]"] ;
61 -> 62 ;
63 [label="gini = 0.0\nsamples = 1\nvalue = [0, 0, 0, 0, 0, 0, 1, 0, 0, 0, 0, 0, 0, 0\n0, 0, 0, 0]"] ;
62 -> 63 ;
64 [label="gini = 0.0\nsamples = 1\nvalue = [0, 0, 0, 0, 0, 0, 0, 0, 1, 0, 0, 0, 0, 0\n0, 0, 0, 0]"] ;
62 -> 64 ;
65 [label="gini = 0.0\nsamples = 1\nvalue = [0, 0, 0, 0, 0, 0, 0, 0, 1, 0, 0, 0, 0, 0\n0, 0, 0, 0]"] ;
61 -> 65 ;
66 [label="X[8] <= 5873.5\ngini = 0.61\nsamples = 279\nvalue = [0, 159, 0, 0, 0, 37, 30, 0, 53, 0, 0, 0, 0\n0, 0, 0, 0, 0]"] ;
4 -> 66 ;
67 [label="X[3] <= 238.5\ngini = 0.524\nsamples = 130\nvalue = [0, 86, 0, 0, 0, 13, 16, 0, 15, 0, 0, 0, 0, 0\n0, 0, 0, 0]"] ;
66 -> 67 ;
68 [label="X[1] <= 17.5\ngini = 0.48\nsamples = 109\nvalue = [0, 76, 0, 0, 0, 6, 13, 0, 14, 0, 0, 0, 0, 0\n0, 0, 0, 0]"] ;
67 -> 68 ;
69 [label="X[10] <= 6.5\ngini = 0.222\nsamples = 33\nvalue = [0, 29, 0, 0, 0, 2, 1, 0, 1, 0, 0, 0, 0, 0\n0, 0, 0, 0]"] ;
68 -> 69 ;
70 [label="X[1] <= 5.0\ngini = 0.174\nsamples = 32\nvalue = [0, 29, 0, 0, 0, 2, 1, 0, 0, 0, 0, 0, 0, 0\n0, 0, 0, 0]"] ;
69 -> 70 ;
71 [label="gini = 0.0\nsamples = 1\nvalue = [0, 0, 0, 0, 0, 1, 0, 0, 0, 0, 0, 0, 0, 0\n0, 0, 0, 0]"] ;
70 -> 71 ;
72 [label="X[5] <= 692.0\ngini = 0.123\nsamples = 31\nvalue = [0, 29, 0, 0, 0, 1, 1, 0, 0, 0, 0, 0, 0, 0\n0, 0, 0, 0]"] ;
70 -> 72 ;
73 [label="X[5] <= 511.5\ngini = 0.069\nsamples = 28\nvalue = [0, 27, 0, 0, 0, 1, 0, 0, 0, 0, 0, 0, 0, 0\n0, 0, 0, 0]"] ;
72 -> 73 ;
74 [label="X[3] <= 210.0\ngini = 0.375\nsamples = 4\nvalue = [0, 3, 0, 0, 0, 1, 0, 0, 0, 0, 0, 0, 0, 0\n0, 0, 0, 0]"] ;
73 -> 74 ;
75 [label="gini = 0.0\nsamples = 3\nvalue = [0, 3, 0, 0, 0, 0, 0, 0, 0, 0, 0, 0, 0, 0\n0, 0, 0, 0]"] ;
74 -> 75 ;
76 [label="gini = 0.0\nsamples = 1\nvalue = [0, 0, 0, 0, 0, 1, 0, 0, 0, 0, 0, 0, 0, 0\n0, 0, 0, 0]"] ;
74 -> 76 ;
77 [label="gini = 0.0\nsamples = 24\nvalue = [0, 24, 0, 0, 0, 0, 0, 0, 0, 0, 0, 0, 0, 0\n0, 0, 0, 0]"] ;
73 -> 77 ;
78 [label="X[1] <= 14.0\ngini = 0.444\nsamples = 3\nvalue = [0, 2, 0, 0, 0, 0, 1, 0, 0, 0, 0, 0, 0, 0\n0, 0, 0, 0]"] ;
72 -> 78 ;
79 [label="gini = 0.0\nsamples = 1\nvalue = [0, 0, 0, 0, 0, 0, 1, 0, 0, 0, 0, 0, 0, 0\n0, 0, 0, 0]"] ;
78 -> 79 ;
80 [label="gini = 0.0\nsamples = 2\nvalue = [0, 2, 0, 0, 0, 0, 0, 0, 0, 0, 0, 0, 0, 0\n0, 0, 0, 0]"] ;
78 -> 80 ;
81 [label="gini = 0.0\nsamples = 1\nvalue = [0, 0, 0, 0, 0, 0, 0, 0, 1, 0, 0, 0, 0, 0\n0, 0, 0, 0]"] ;
69 -> 81 ;
82 [label="X[10] <= 5.75\ngini = 0.561\nsamples = 76\nvalue = [0, 47, 0, 0, 0, 4, 12, 0, 13, 0, 0, 0, 0, 0\n0, 0, 0, 0]"] ;
68 -> 82 ;
83 [label="X[10] <= 5.6\ngini = 0.554\nsamples = 36\nvalue = [0, 22, 0, 0, 0, 3, 9, 0, 2, 0, 0, 0, 0, 0\n0, 0, 0, 0]"] ;
82 -> 83 ;
84 [label="X[5] <= 490.0\ngini = 0.528\nsamples = 34\nvalue = [0, 22, 0, 0, 0, 3, 7, 0, 2, 0, 0, 0, 0, 0\n0, 0, 0, 0]"] ;
83 -> 84 ;
85 [label="X[5] <= 421.0\ngini = 0.64\nsamples = 20\nvalue = [0, 10, 0, 0, 0, 2, 6, 0, 2, 0, 0, 0, 0, 0\n0, 0, 0, 0]"] ;
84 -> 85 ;
86 [label="X[8] <= 5652.0\ngini = 0.459\nsamples = 14\nvalue = [0, 10, 0, 0, 0, 1, 2, 0, 1, 0, 0, 0, 0, 0\n0, 0, 0, 0]"] ;
85 -> 86 ;
87 [label="X[5] <= 243.5\ngini = 0.18\nsamples = 10\nvalue = [0, 9, 0, 0, 0, 0, 0, 0, 1, 0, 0, 0, 0, 0\n0, 0, 0, 0]"] ;
86 -> 87 ;
88 [label="gini = 0.0\nsamples = 1\nvalue = [0, 0, 0, 0, 0, 0, 0, 0, 1, 0, 0, 0, 0, 0\n0, 0, 0, 0]"] ;
87 -> 88 ;
89 [label="gini = 0.0\nsamples = 9\nvalue = [0, 9, 0, 0, 0, 0, 0, 0, 0, 0, 0, 0, 0, 0\n0, 0, 0, 0]"] ;
87 -> 89 ;
90 [label="X[5] <= 344.0\ngini = 0.625\nsamples = 4\nvalue = [0, 1, 0, 0, 0, 1, 2, 0, 0, 0, 0, 0, 0, 0\n0, 0, 0, 0]"] ;
86 -> 90 ;
91 [label="gini = 0.0\nsamples = 1\nvalue = [0, 0, 0, 0, 0, 1, 0, 0, 0, 0, 0, 0, 0, 0\n0, 0, 0, 0]"] ;
90 -> 91 ;
92 [label="X[2] <= 63.0\ngini = 0.444\nsamples = 3\nvalue = [0, 1, 0, 0, 0, 0, 2, 0, 0, 0, 0, 0, 0, 0\n0, 0, 0, 0]"] ;
90 -> 92 ;
93 [label="gini = 0.0\nsamples = 2\nvalue = [0, 0, 0, 0, 0, 0, 2, 0, 0, 0, 0, 0, 0, 0\n0, 0, 0, 0]"] ;
92 -> 93 ;
94 [label="gini = 0.0\nsamples = 1\nvalue = [0, 1, 0, 0, 0, 0, 0, 0, 0, 0, 0, 0, 0, 0\n0, 0, 0, 0]"] ;
92 -> 94 ;
95 [label="X[1] <= 26.5\ngini = 0.5\nsamples = 6\nvalue = [0, 0, 0, 0, 0, 1, 4, 0, 1, 0, 0, 0, 0, 0\n0, 0, 0, 0]"] ;
85 -> 95 ;
96 [label="X[2] <= 80.5\ngini = 0.32\nsamples = 5\nvalue = [0, 0, 0, 0, 0, 0, 4, 0, 1, 0, 0, 0, 0, 0\n0, 0, 0, 0]"] ;
95 -> 96 ;
97 [label="gini = 0.0\nsamples = 4\nvalue = [0, 0, 0, 0, 0, 0, 4, 0, 0, 0, 0, 0, 0, 0\n0, 0, 0, 0]"] ;
96 -> 97 ;
98 [label="gini = 0.0\nsamples = 1\nvalue = [0, 0, 0, 0, 0, 0, 0, 0, 1, 0, 0, 0, 0, 0\n0, 0, 0, 0]"] ;
96 -> 98 ;
99 [label="gini = 0.0\nsamples = 1\nvalue = [0, 0, 0, 0, 0, 1, 0, 0, 0, 0, 0, 0, 0, 0\n0, 0, 0, 0]"] ;
95 -> 99 ;
100 [label="X[2] <= 90.0\ngini = 0.255\nsamples = 14\nvalue = [0, 12, 0, 0, 0, 1, 1, 0, 0, 0, 0, 0, 0, 0\n0, 0, 0, 0]"] ;
84 -> 100 ;
101 [label="X[8] <= 5477.0\ngini = 0.142\nsamples = 13\nvalue = [0, 12, 0, 0, 0, 0, 1, 0, 0, 0, 0, 0, 0, 0\n0, 0, 0, 0]"] ;
100 -> 101 ;
102 [label="X[5] <= 610.0\ngini = 0.5\nsamples = 2\nvalue = [0, 1, 0, 0, 0, 0, 1, 0, 0, 0, 0, 0, 0, 0\n0, 0, 0, 0]"] ;
101 -> 102 ;
103 [label="gini = 0.0\nsamples = 1\nvalue = [0, 0, 0, 0, 0, 0, 1, 0, 0, 0, 0, 0, 0, 0\n0, 0, 0, 0]"] ;
102 -> 103 ;
104 [label="gini = 0.0\nsamples = 1\nvalue = [0, 1, 0, 0, 0, 0, 0, 0, 0, 0, 0, 0, 0, 0\n0, 0, 0, 0]"] ;
102 -> 104 ;
105 [label="gini = 0.0\nsamples = 11\nvalue = [0, 11, 0, 0, 0, 0, 0, 0, 0, 0, 0, 0, 0, 0\n0, 0, 0, 0]"] ;
101 -> 105 ;
106 [label="gini = 0.0\nsamples = 1\nvalue = [0, 0, 0, 0, 0, 1, 0, 0, 0, 0, 0, 0, 0, 0\n0, 0, 0, 0]"] ;
100 -> 106 ;
107 [label="gini = 0.0\nsamples = 2\nvalue = [0, 0, 0, 0, 0, 0, 2, 0, 0, 0, 0, 0, 0, 0\n0, 0, 0, 0]"] ;
83 -> 107 ;
108 [label="X[4] <= 1438.0\ngini = 0.528\nsamples = 40\nvalue = [0, 25, 0, 0, 0, 1, 3, 0, 11, 0, 0, 0, 0, 0\n0, 0, 0, 0]"] ;
82 -> 108 ;
109 [label="X[2] <= 77.5\ngini = 0.427\nsamples = 23\nvalue = [0, 17, 0, 0, 0, 1, 2, 0, 3, 0, 0, 0, 0, 0\n0, 0, 0, 0]"] ;
108 -> 109 ;
110 [label="X[7] <= 518.5\ngini = 0.376\nsamples = 22\nvalue = [0, 17, 0, 0, 0, 0, 2, 0, 3, 0, 0, 0, 0, 0\n0, 0, 0, 0]"] ;
109 -> 110 ;
111 [label="gini = 0.0\nsamples = 1\nvalue = [0, 0, 0, 0, 0, 0, 0, 0, 1, 0, 0, 0, 0, 0\n0, 0, 0, 0]"] ;
110 -> 111 ;
112 [label="X[2] <= 66.5\ngini = 0.327\nsamples = 21\nvalue = [0, 17, 0, 0, 0, 0, 2, 0, 2, 0, 0, 0, 0, 0\n0, 0, 0, 0]"] ;
110 -> 112 ;
113 [label="gini = 0.0\nsamples = 9\nvalue = [0, 9, 0, 0, 0, 0, 0, 0, 0, 0, 0, 0, 0, 0\n0, 0, 0, 0]"] ;
112 -> 113 ;
114 [label="X[4] <= 1312.0\ngini = 0.5\nsamples = 12\nvalue = [0, 8, 0, 0, 0, 0, 2, 0, 2, 0, 0, 0, 0, 0\n0, 0, 0, 0]"] ;
112 -> 114 ;
115 [label="X[5] <= 623.5\ngini = 0.625\nsamples = 4\nvalue = [0, 1, 0, 0, 0, 0, 2, 0, 1, 0, 0, 0, 0, 0\n0, 0, 0, 0]"] ;
114 -> 115 ;
116 [label="gini = 0.0\nsamples = 2\nvalue = [0, 0, 0, 0, 0, 0, 2, 0, 0, 0, 0, 0, 0, 0\n0, 0, 0, 0]"] ;
115 -> 116 ;
117 [label="X[10] <= 6.5\ngini = 0.5\nsamples = 2\nvalue = [0, 1, 0, 0, 0, 0, 0, 0, 1, 0, 0, 0, 0, 0\n0, 0, 0, 0]"] ;
115 -> 117 ;
118 [label="gini = 0.0\nsamples = 1\nvalue = [0, 1, 0, 0, 0, 0, 0, 0, 0, 0, 0, 0, 0, 0\n0, 0, 0, 0]"] ;
117 -> 118 ;
119 [label="gini = 0.0\nsamples = 1\nvalue = [0, 0, 0, 0, 0, 0, 0, 0, 1, 0, 0, 0, 0, 0\n0, 0, 0, 0]"] ;
117 -> 119 ;
120 [label="X[5] <= 551.0\ngini = 0.219\nsamples = 8\nvalue = [0, 7, 0, 0, 0, 0, 0, 0, 1, 0, 0, 0, 0, 0\n0, 0, 0, 0]"] ;
114 -> 120 ;
121 [label="gini = 0.0\nsamples = 1\nvalue = [0, 0, 0, 0, 0, 0, 0, 0, 1, 0, 0, 0, 0, 0\n0, 0, 0, 0]"] ;
120 -> 121 ;
122 [label="gini = 0.0\nsamples = 7\nvalue = [0, 7, 0, 0, 0, 0, 0, 0, 0, 0, 0, 0, 0, 0\n0, 0, 0, 0]"] ;
120 -> 122 ;
123 [label="gini = 0.0\nsamples = 1\nvalue = [0, 0, 0, 0, 0, 1, 0, 0, 0, 0, 0, 0, 0, 0\n0, 0, 0, 0]"] ;
109 -> 123 ;
124 [label="X[1] <= 20.5\ngini = 0.554\nsamples = 17\nvalue = [0, 8, 0, 0, 0, 0, 1, 0, 8, 0, 0, 0, 0, 0\n0, 0, 0, 0]"] ;
108 -> 124 ;
125 [label="gini = 0.0\nsamples = 3\nvalue = [0, 0, 0, 0, 0, 0, 0, 0, 3, 0, 0, 0, 0, 0\n0, 0, 0, 0]"] ;
124 -> 125 ;
126 [label="X[5] <= 671.0\ngini = 0.541\nsamples = 14\nvalue = [0, 8, 0, 0, 0, 0, 1, 0, 5, 0, 0, 0, 0, 0\n0, 0, 0, 0]"] ;
124 -> 126 ;
127 [label="X[5] <= 632.0\ngini = 0.58\nsamples = 10\nvalue = [0, 4, 0, 0, 0, 0, 1, 0, 5, 0, 0, 0, 0, 0\n0, 0, 0, 0]"] ;
126 -> 127 ;
128 [label="X[2] <= 69.5\ngini = 0.444\nsamples = 6\nvalue = [0, 4, 0, 0, 0, 0, 0, 0, 2, 0, 0, 0, 0, 0\n0, 0, 0, 0]"] ;
127 -> 128 ;
129 [label="X[3] <= 213.0\ngini = 0.444\nsamples = 3\nvalue = [0, 1, 0, 0, 0, 0, 0, 0, 2, 0, 0, 0, 0, 0\n0, 0, 0, 0]"] ;
128 -> 129 ;
130 [label="gini = 0.0\nsamples = 2\nvalue = [0, 0, 0, 0, 0, 0, 0, 0, 2, 0, 0, 0, 0, 0\n0, 0, 0, 0]"] ;
129 -> 130 ;
131 [label="gini = 0.0\nsamples = 1\nvalue = [0, 1, 0, 0, 0, 0, 0, 0, 0, 0, 0, 0, 0, 0\n0, 0, 0, 0]"] ;
129 -> 131 ;
132 [label="gini = 0.0\nsamples = 3\nvalue = [0, 3, 0, 0, 0, 0, 0, 0, 0, 0, 0, 0, 0, 0\n0, 0, 0, 0]"] ;
128 -> 132 ;
133 [label="X[5] <= 669.5\ngini = 0.375\nsamples = 4\nvalue = [0, 0, 0, 0, 0, 0, 1, 0, 3, 0, 0, 0, 0, 0\n0, 0, 0, 0]"] ;
127 -> 133 ;
134 [label="gini = 0.0\nsamples = 3\nvalue = [0, 0, 0, 0, 0, 0, 0, 0, 3, 0, 0, 0, 0, 0\n0, 0, 0, 0]"] ;
133 -> 134 ;
135 [label="gini = 0.0\nsamples = 1\nvalue = [0, 0, 0, 0, 0, 0, 1, 0, 0, 0, 0, 0, 0, 0\n0, 0, 0, 0]"] ;
133 -> 135 ;
136 [label="gini = 0.0\nsamples = 4\nvalue = [0, 4, 0, 0, 0, 0, 0, 0, 0, 0, 0, 0, 0, 0\n0, 0, 0, 0]"] ;
126 -> 136 ;
137 [label="X[5] <= 639.5\ngini = 0.639\nsamples = 21\nvalue = [0, 10, 0, 0, 0, 7, 3, 0, 1, 0, 0, 0, 0, 0\n0, 0, 0, 0]"] ;
67 -> 137 ;
138 [label="X[4] <= 1803.0\ngini = 0.32\nsamples = 5\nvalue = [0, 0, 0, 0, 0, 4, 0, 0, 1, 0, 0, 0, 0, 0\n0, 0, 0, 0]"] ;
137 -> 138 ;
139 [label="gini = 0.0\nsamples = 4\nvalue = [0, 0, 0, 0, 0, 4, 0, 0, 0, 0, 0, 0, 0, 0\n0, 0, 0, 0]"] ;
138 -> 139 ;
140 [label="gini = 0.0\nsamples = 1\nvalue = [0, 0, 0, 0, 0, 0, 0, 0, 1, 0, 0, 0, 0, 0\n0, 0, 0, 0]"] ;
138 -> 140 ;
141 [label="X[2] <= 95.0\ngini = 0.539\nsamples = 16\nvalue = [0, 10, 0, 0, 0, 3, 3, 0, 0, 0, 0, 0, 0, 0\n0, 0, 0, 0]"] ;
137 -> 141 ;
142 [label="X[5] <= 645.5\ngini = 0.66\nsamples = 10\nvalue = [0, 4, 0, 0, 0, 3, 3, 0, 0, 0, 0, 0, 0, 0\n0, 0, 0, 0]"] ;
141 -> 142 ;
143 [label="gini = 0.0\nsamples = 2\nvalue = [0, 2, 0, 0, 0, 0, 0, 0, 0, 0, 0, 0, 0, 0\n0, 0, 0, 0]"] ;
142 -> 143 ;
144 [label="X[5] <= 667.5\ngini = 0.656\nsamples = 8\nvalue = [0, 2, 0, 0, 0, 3, 3, 0, 0, 0, 0, 0, 0, 0\n0, 0, 0, 0]"] ;
142 -> 144 ;
145 [label="gini = 0.0\nsamples = 2\nvalue = [0, 0, 0, 0, 0, 2, 0, 0, 0, 0, 0, 0, 0, 0\n0, 0, 0, 0]"] ;
144 -> 145 ;
146 [label="X[2] <= 93.5\ngini = 0.611\nsamples = 6\nvalue = [0, 2, 0, 0, 0, 1, 3, 0, 0, 0, 0, 0, 0, 0\n0, 0, 0, 0]"] ;
144 -> 146 ;
147 [label="X[2] <= 90.0\ngini = 0.48\nsamples = 5\nvalue = [0, 2, 0, 0, 0, 0, 3, 0, 0, 0, 0, 0, 0, 0\n0, 0, 0, 0]"] ;
146 -> 147 ;
148 [label="X[2] <= 76.5\ngini = 0.444\nsamples = 3\nvalue = [0, 2, 0, 0, 0, 0, 1, 0, 0, 0, 0, 0, 0, 0\n0, 0, 0, 0]"] ;
147 -> 148 ;
149 [label="gini = 0.0\nsamples = 1\nvalue = [0, 0, 0, 0, 0, 0, 1, 0, 0, 0, 0, 0, 0, 0\n0, 0, 0, 0]"] ;
148 -> 149 ;
150 [label="gini = 0.0\nsamples = 2\nvalue = [0, 2, 0, 0, 0, 0, 0, 0, 0, 0, 0, 0, 0, 0\n0, 0, 0, 0]"] ;
148 -> 150 ;
151 [label="gini = 0.0\nsamples = 2\nvalue = [0, 0, 0, 0, 0, 0, 2, 0, 0, 0, 0, 0, 0, 0\n0, 0, 0, 0]"] ;
147 -> 151 ;
152 [label="gini = 0.0\nsamples = 1\nvalue = [0, 0, 0, 0, 0, 1, 0, 0, 0, 0, 0, 0, 0, 0\n0, 0, 0, 0]"] ;
146 -> 152 ;
153 [label="gini = 0.0\nsamples = 6\nvalue = [0, 6, 0, 0, 0, 0, 0, 0, 0, 0, 0, 0, 0, 0\n0, 0, 0, 0]"] ;
141 -> 153 ;
154 [label="X[3] <= 241.5\ngini = 0.66\nsamples = 149\nvalue = [0, 73, 0, 0, 0, 24, 14, 0, 38, 0, 0, 0, 0, 0\n0, 0, 0, 0]"] ;
66 -> 154 ;
155 [label="X[4] <= 1733.5\ngini = 0.707\nsamples = 78\nvalue = [0, 32, 0, 0, 0, 20, 10, 0, 16, 0, 0, 0, 0, 0\n0, 0, 0, 0]"] ;
154 -> 155 ;
156 [label="X[5] <= 492.5\ngini = 0.687\nsamples = 67\nvalue = [0, 31, 0, 0, 0, 14, 9, 0, 13, 0, 0, 0, 0, 0\n0, 0, 0, 0]"] ;
155 -> 156 ;
157 [label="X[3] <= 232.5\ngini = 0.736\nsamples = 25\nvalue = [0, 6, 0, 0, 0, 8, 4, 0, 7, 0, 0, 0, 0, 0\n0, 0, 0, 0]"] ;
156 -> 157 ;
158 [label="X[10] <= 3.85\ngini = 0.741\nsamples = 23\nvalue = [0, 6, 0, 0, 0, 6, 4, 0, 7, 0, 0, 0, 0, 0\n0, 0, 0, 0]"] ;
157 -> 158 ;
159 [label="X[10] <= 3.75\ngini = 0.375\nsamples = 4\nvalue = [0, 1, 0, 0, 0, 0, 0, 0, 3, 0, 0, 0, 0, 0\n0, 0, 0, 0]"] ;
158 -> 159 ;
160 [label="X[2] <= 78.0\ngini = 0.5\nsamples = 2\nvalue = [0, 1, 0, 0, 0, 0, 0, 0, 1, 0, 0, 0, 0, 0\n0, 0, 0, 0]"] ;
159 -> 160 ;
161 [label="gini = 0.0\nsamples = 1\nvalue = [0, 1, 0, 0, 0, 0, 0, 0, 0, 0, 0, 0, 0, 0\n0, 0, 0, 0]"] ;
160 -> 161 ;
162 [label="gini = 0.0\nsamples = 1\nvalue = [0, 0, 0, 0, 0, 0, 0, 0, 1, 0, 0, 0, 0, 0\n0, 0, 0, 0]"] ;
160 -> 162 ;
163 [label="gini = 0.0\nsamples = 2\nvalue = [0, 0, 0, 0, 0, 0, 0, 0, 2, 0, 0, 0, 0, 0\n0, 0, 0, 0]"] ;
159 -> 163 ;
164 [label="X[1] <= 19.5\ngini = 0.742\nsamples = 19\nvalue = [0, 5, 0, 0, 0, 6, 4, 0, 4, 0, 0, 0, 0, 0\n0, 0, 0, 0]"] ;
158 -> 164 ;
165 [label="X[8] <= 5913.0\ngini = 0.56\nsamples = 5\nvalue = [0, 1, 0, 0, 0, 0, 1, 0, 3, 0, 0, 0, 0, 0\n0, 0, 0, 0]"] ;
164 -> 165 ;
166 [label="X[2] <= 68.5\ngini = 0.375\nsamples = 4\nvalue = [0, 0, 0, 0, 0, 0, 1, 0, 3, 0, 0, 0, 0, 0\n0, 0, 0, 0]"] ;
165 -> 166 ;
167 [label="X[5] <= 384.0\ngini = 0.5\nsamples = 2\nvalue = [0, 0, 0, 0, 0, 0, 1, 0, 1, 0, 0, 0, 0, 0\n0, 0, 0, 0]"] ;
166 -> 167 ;
168 [label="gini = 0.0\nsamples = 1\nvalue = [0, 0, 0, 0, 0, 0, 0, 0, 1, 0, 0, 0, 0, 0\n0, 0, 0, 0]"] ;
167 -> 168 ;
169 [label="gini = 0.0\nsamples = 1\nvalue = [0, 0, 0, 0, 0, 0, 1, 0, 0, 0, 0, 0, 0, 0\n0, 0, 0, 0]"] ;
167 -> 169 ;
170 [label="gini = 0.0\nsamples = 2\nvalue = [0, 0, 0, 0, 0, 0, 0, 0, 2, 0, 0, 0, 0, 0\n0, 0, 0, 0]"] ;
166 -> 170 ;
171 [label="gini = 0.0\nsamples = 1\nvalue = [0, 1, 0, 0, 0, 0, 0, 0, 0, 0, 0, 0, 0, 0\n0, 0, 0, 0]"] ;
165 -> 171 ;
172 [label="X[1] <= 23.0\ngini = 0.684\nsamples = 14\nvalue = [0, 4, 0, 0, 0, 6, 3, 0, 1, 0, 0, 0, 0, 0\n0, 0, 0, 0]"] ;
164 -> 172 ;
173 [label="X[5] <= 343.0\ngini = 0.449\nsamples = 7\nvalue = [0, 1, 0, 0, 0, 5, 1, 0, 0, 0, 0, 0, 0, 0\n0, 0, 0, 0]"] ;
172 -> 173 ;
174 [label="gini = 0.0\nsamples = 1\nvalue = [0, 0, 0, 0, 0, 0, 1, 0, 0, 0, 0, 0, 0, 0\n0, 0, 0, 0]"] ;
173 -> 174 ;
175 [label="X[5] <= 364.5\ngini = 0.278\nsamples = 6\nvalue = [0, 1, 0, 0, 0, 5, 0, 0, 0, 0, 0, 0, 0, 0\n0, 0, 0, 0]"] ;
173 -> 175 ;
176 [label="X[7] <= 808.5\ngini = 0.5\nsamples = 2\nvalue = [0, 1, 0, 0, 0, 1, 0, 0, 0, 0, 0, 0, 0, 0\n0, 0, 0, 0]"] ;
175 -> 176 ;
177 [label="gini = 0.0\nsamples = 1\nvalue = [0, 0, 0, 0, 0, 1, 0, 0, 0, 0, 0, 0, 0, 0\n0, 0, 0, 0]"] ;
176 -> 177 ;
178 [label="gini = 0.0\nsamples = 1\nvalue = [0, 1, 0, 0, 0, 0, 0, 0, 0, 0, 0, 0, 0, 0\n0, 0, 0, 0]"] ;
176 -> 178 ;
179 [label="gini = 0.0\nsamples = 4\nvalue = [0, 0, 0, 0, 0, 4, 0, 0, 0, 0, 0, 0, 0, 0\n0, 0, 0, 0]"] ;
175 -> 179 ;
180 [label="X[3] <= 208.5\ngini = 0.694\nsamples = 7\nvalue = [0, 3, 0, 0, 0, 1, 2, 0, 1, 0, 0, 0, 0, 0\n0, 0, 0, 0]"] ;
172 -> 180 ;
181 [label="X[1] <= 27.5\ngini = 0.56\nsamples = 5\nvalue = [0, 3, 0, 0, 0, 1, 0, 0, 1, 0, 0, 0, 0, 0\n0, 0, 0, 0]"] ;
180 -> 181 ;
182 [label="gini = 0.0\nsamples = 3\nvalue = [0, 3, 0, 0, 0, 0, 0, 0, 0, 0, 0, 0, 0, 0\n0, 0, 0, 0]"] ;
181 -> 182 ;
183 [label="X[7] <= 807.0\ngini = 0.5\nsamples = 2\nvalue = [0, 0, 0, 0, 0, 1, 0, 0, 1, 0, 0, 0, 0, 0\n0, 0, 0, 0]"] ;
181 -> 183 ;
184 [label="gini = 0.0\nsamples = 1\nvalue = [0, 0, 0, 0, 0, 0, 0, 0, 1, 0, 0, 0, 0, 0\n0, 0, 0, 0]"] ;
183 -> 184 ;
185 [label="gini = 0.0\nsamples = 1\nvalue = [0, 0, 0, 0, 0, 1, 0, 0, 0, 0, 0, 0, 0, 0\n0, 0, 0, 0]"] ;
183 -> 185 ;
186 [label="gini = 0.0\nsamples = 2\nvalue = [0, 0, 0, 0, 0, 0, 2, 0, 0, 0, 0, 0, 0, 0\n0, 0, 0, 0]"] ;
180 -> 186 ;
187 [label="gini = 0.0\nsamples = 2\nvalue = [0, 0, 0, 0, 0, 2, 0, 0, 0, 0, 0, 0, 0, 0\n0, 0, 0, 0]"] ;
157 -> 187 ;
188 [label="X[10] <= 5.6\ngini = 0.591\nsamples = 42\nvalue = [0, 25, 0, 0, 0, 6, 5, 0, 6, 0, 0, 0, 0, 0\n0, 0, 0, 0]"] ;
156 -> 188 ;
189 [label="X[1] <= 5.5\ngini = 0.318\nsamples = 22\nvalue = [0, 18, 0, 0, 0, 1, 1, 0, 2, 0, 0, 0, 0, 0\n0, 0, 0, 0]"] ;
188 -> 189 ;
190 [label="gini = 0.0\nsamples = 1\nvalue = [0, 0, 0, 0, 0, 1, 0, 0, 0, 0, 0, 0, 0, 0\n0, 0, 0, 0]"] ;
189 -> 190 ;
191 [label="X[4] <= 1647.0\ngini = 0.254\nsamples = 21\nvalue = [0, 18, 0, 0, 0, 0, 1, 0, 2, 0, 0, 0, 0, 0\n0, 0, 0, 0]"] ;
189 -> 191 ;
192 [label="X[4] <= 1630.5\ngini = 0.43\nsamples = 11\nvalue = [0, 8, 0, 0, 0, 0, 1, 0, 2, 0, 0, 0, 0, 0\n0, 0, 0, 0]"] ;
191 -> 192 ;
193 [label="X[4] <= 1620.5\ngini = 0.198\nsamples = 9\nvalue = [0, 8, 0, 0, 0, 0, 1, 0, 0, 0, 0, 0, 0, 0\n0, 0, 0, 0]"] ;
192 -> 193 ;
194 [label="gini = 0.0\nsamples = 7\nvalue = [0, 7, 0, 0, 0, 0, 0, 0, 0, 0, 0, 0, 0, 0\n0, 0, 0, 0]"] ;
193 -> 194 ;
195 [label="X[5] <= 518.5\ngini = 0.5\nsamples = 2\nvalue = [0, 1, 0, 0, 0, 0, 1, 0, 0, 0, 0, 0, 0, 0\n0, 0, 0, 0]"] ;
193 -> 195 ;
196 [label="gini = 0.0\nsamples = 1\nvalue = [0, 1, 0, 0, 0, 0, 0, 0, 0, 0, 0, 0, 0, 0\n0, 0, 0, 0]"] ;
195 -> 196 ;
197 [label="gini = 0.0\nsamples = 1\nvalue = [0, 0, 0, 0, 0, 0, 1, 0, 0, 0, 0, 0, 0, 0\n0, 0, 0, 0]"] ;
195 -> 197 ;
198 [label="gini = 0.0\nsamples = 2\nvalue = [0, 0, 0, 0, 0, 0, 0, 0, 2, 0, 0, 0, 0, 0\n0, 0, 0, 0]"] ;
192 -> 198 ;
199 [label="gini = 0.0\nsamples = 10\nvalue = [0, 10, 0, 0, 0, 0, 0, 0, 0, 0, 0, 0, 0, 0\n0, 0, 0, 0]"] ;
191 -> 199 ;
200 [label="X[10] <= 5.95\ngini = 0.735\nsamples = 20\nvalue = [0, 7, 0, 0, 0, 5, 4, 0, 4, 0, 0, 0, 0, 0\n0, 0, 0, 0]"] ;
188 -> 200 ;
201 [label="X[1] <= 15.0\ngini = 0.7\nsamples = 10\nvalue = [0, 2, 0, 0, 0, 1, 4, 0, 3, 0, 0, 0, 0, 0\n0, 0, 0, 0]"] ;
200 -> 201 ;
202 [label="X[5] <= 608.0\ngini = 0.56\nsamples = 5\nvalue = [0, 1, 0, 0, 0, 1, 0, 0, 3, 0, 0, 0, 0, 0\n0, 0, 0, 0]"] ;
201 -> 202 ;
203 [label="X[1] <= 13.0\ngini = 0.5\nsamples = 2\nvalue = [0, 1, 0, 0, 0, 1, 0, 0, 0, 0, 0, 0, 0, 0\n0, 0, 0, 0]"] ;
202 -> 203 ;
204 [label="gini = 0.0\nsamples = 1\nvalue = [0, 1, 0, 0, 0, 0, 0, 0, 0, 0, 0, 0, 0, 0\n0, 0, 0, 0]"] ;
203 -> 204 ;
205 [label="gini = 0.0\nsamples = 1\nvalue = [0, 0, 0, 0, 0, 1, 0, 0, 0, 0, 0, 0, 0, 0\n0, 0, 0, 0]"] ;
203 -> 205 ;
206 [label="gini = 0.0\nsamples = 3\nvalue = [0, 0, 0, 0, 0, 0, 0, 0, 3, 0, 0, 0, 0, 0\n0, 0, 0, 0]"] ;
202 -> 206 ;
207 [label="X[4] <= 1491.0\ngini = 0.32\nsamples = 5\nvalue = [0, 1, 0, 0, 0, 0, 4, 0, 0, 0, 0, 0, 0, 0\n0, 0, 0, 0]"] ;
201 -> 207 ;
208 [label="gini = 0.0\nsamples = 1\nvalue = [0, 1, 0, 0, 0, 0, 0, 0, 0, 0, 0, 0, 0, 0\n0, 0, 0, 0]"] ;
207 -> 208 ;
209 [label="gini = 0.0\nsamples = 4\nvalue = [0, 0, 0, 0, 0, 0, 4, 0, 0, 0, 0, 0, 0, 0\n0, 0, 0, 0]"] ;
207 -> 209 ;
210 [label="X[1] <= 23.5\ngini = 0.58\nsamples = 10\nvalue = [0, 5, 0, 0, 0, 4, 0, 0, 1, 0, 0, 0, 0, 0\n0, 0, 0, 0]"] ;
200 -> 210 ;
211 [label="gini = 0.0\nsamples = 3\nvalue = [0, 3, 0, 0, 0, 0, 0, 0, 0, 0, 0, 0, 0, 0\n0, 0, 0, 0]"] ;
210 -> 211 ;
212 [label="X[8] <= 5910.5\ngini = 0.571\nsamples = 7\nvalue = [0, 2, 0, 0, 0, 4, 0, 0, 1, 0, 0, 0, 0, 0\n0, 0, 0, 0]"] ;
210 -> 212 ;
213 [label="X[3] <= 225.0\ngini = 0.444\nsamples = 3\nvalue = [0, 2, 0, 0, 0, 0, 0, 0, 1, 0, 0, 0, 0, 0\n0, 0, 0, 0]"] ;
212 -> 213 ;
214 [label="gini = 0.0\nsamples = 2\nvalue = [0, 2, 0, 0, 0, 0, 0, 0, 0, 0, 0, 0, 0, 0\n0, 0, 0, 0]"] ;
213 -> 214 ;
215 [label="gini = 0.0\nsamples = 1\nvalue = [0, 0, 0, 0, 0, 0, 0, 0, 1, 0, 0, 0, 0, 0\n0, 0, 0, 0]"] ;
213 -> 215 ;
216 [label="gini = 0.0\nsamples = 4\nvalue = [0, 0, 0, 0, 0, 4, 0, 0, 0, 0, 0, 0, 0, 0\n0, 0, 0, 0]"] ;
212 -> 216 ;
217 [label="X[2] <= 83.5\ngini = 0.612\nsamples = 11\nvalue = [0, 1, 0, 0, 0, 6, 1, 0, 3, 0, 0, 0, 0, 0\n0, 0, 0, 0]"] ;
155 -> 217 ;
218 [label="X[4] <= 1761.0\ngini = 0.56\nsamples = 5\nvalue = [0, 0, 0, 0, 0, 1, 1, 0, 3, 0, 0, 0, 0, 0\n0, 0, 0, 0]"] ;
217 -> 218 ;
219 [label="X[1] <= 26.5\ngini = 0.375\nsamples = 4\nvalue = [0, 0, 0, 0, 0, 1, 0, 0, 3, 0, 0, 0, 0, 0\n0, 0, 0, 0]"] ;
218 -> 219 ;
220 [label="gini = 0.0\nsamples = 2\nvalue = [0, 0, 0, 0, 0, 0, 0, 0, 2, 0, 0, 0, 0, 0\n0, 0, 0, 0]"] ;
219 -> 220 ;
221 [label="X[8] <= 5896.0\ngini = 0.5\nsamples = 2\nvalue = [0, 0, 0, 0, 0, 1, 0, 0, 1, 0, 0, 0, 0, 0\n0, 0, 0, 0]"] ;
219 -> 221 ;
222 [label="gini = 0.0\nsamples = 1\nvalue = [0, 0, 0, 0, 0, 0, 0, 0, 1, 0, 0, 0, 0, 0\n0, 0, 0, 0]"] ;
221 -> 222 ;
223 [label="gini = 0.0\nsamples = 1\nvalue = [0, 0, 0, 0, 0, 1, 0, 0, 0, 0, 0, 0, 0, 0\n0, 0, 0, 0]"] ;
221 -> 223 ;
224 [label="gini = 0.0\nsamples = 1\nvalue = [0, 0, 0, 0, 0, 0, 1, 0, 0, 0, 0, 0, 0, 0\n0, 0, 0, 0]"] ;
218 -> 224 ;
225 [label="X[2] <= 94.0\ngini = 0.278\nsamples = 6\nvalue = [0, 1, 0, 0, 0, 5, 0, 0, 0, 0, 0, 0, 0, 0\n0, 0, 0, 0]"] ;
217 -> 225 ;
226 [label="gini = 0.0\nsamples = 5\nvalue = [0, 0, 0, 0, 0, 5, 0, 0, 0, 0, 0, 0, 0, 0\n0, 0, 0, 0]"] ;
225 -> 226 ;
227 [label="gini = 0.0\nsamples = 1\nvalue = [0, 1, 0, 0, 0, 0, 0, 0, 0, 0, 0, 0, 0, 0\n0, 0, 0, 0]"] ;
225 -> 227 ;
228 [label="X[10] <= 5.45\ngini = 0.564\nsamples = 71\nvalue = [0, 41, 0, 0, 0, 4, 4, 0, 22, 0, 0, 0, 0, 0\n0, 0, 0, 0]"] ;
154 -> 228 ;
229 [label="X[10] <= 5.35\ngini = 0.58\nsamples = 63\nvalue = [0, 34, 0, 0, 0, 3, 4, 0, 22, 0, 0, 0, 0, 0\n0, 0, 0, 0]"] ;
228 -> 229 ;
230 [label="X[1] <= 29.0\ngini = 0.559\nsamples = 59\nvalue = [0, 34, 0, 0, 0, 3, 3, 0, 19, 0, 0, 0, 0, 0\n0, 0, 0, 0]"] ;
229 -> 230 ;
231 [label="X[5] <= 630.0\ngini = 0.55\nsamples = 57\nvalue = [0, 34, 0, 0, 0, 3, 3, 0, 17, 0, 0, 0, 0, 0\n0, 0, 0, 0]"] ;
230 -> 231 ;
232 [label="X[4] <= 1820.0\ngini = 0.554\nsamples = 19\nvalue = [0, 12, 0, 0, 0, 2, 3, 0, 2, 0, 0, 0, 0, 0\n0, 0, 0, 0]"] ;
231 -> 232 ;
233 [label="X[4] <= 1816.5\ngini = 0.727\nsamples = 11\nvalue = [0, 4, 0, 0, 0, 2, 3, 0, 2, 0, 0, 0, 0, 0\n0, 0, 0, 0]"] ;
232 -> 233 ;
234 [label="X[1] <= 25.0\ngini = 0.571\nsamples = 7\nvalue = [0, 4, 0, 0, 0, 2, 0, 0, 1, 0, 0, 0, 0, 0\n0, 0, 0, 0]"] ;
233 -> 234 ;
235 [label="X[2] <= 96.0\ngini = 0.32\nsamples = 5\nvalue = [0, 4, 0, 0, 0, 1, 0, 0, 0, 0, 0, 0, 0, 0\n0, 0, 0, 0]"] ;
234 -> 235 ;
236 [label="X[2] <= 93.0\ngini = 0.5\nsamples = 2\nvalue = [0, 1, 0, 0, 0, 1, 0, 0, 0, 0, 0, 0, 0, 0\n0, 0, 0, 0]"] ;
235 -> 236 ;
237 [label="gini = 0.0\nsamples = 1\nvalue = [0, 1, 0, 0, 0, 0, 0, 0, 0, 0, 0, 0, 0, 0\n0, 0, 0, 0]"] ;
236 -> 237 ;
238 [label="gini = 0.0\nsamples = 1\nvalue = [0, 0, 0, 0, 0, 1, 0, 0, 0, 0, 0, 0, 0, 0\n0, 0, 0, 0]"] ;
236 -> 238 ;
239 [label="gini = 0.0\nsamples = 3\nvalue = [0, 3, 0, 0, 0, 0, 0, 0, 0, 0, 0, 0, 0, 0\n0, 0, 0, 0]"] ;
235 -> 239 ;
240 [label="X[1] <= 27.0\ngini = 0.5\nsamples = 2\nvalue = [0, 0, 0, 0, 0, 1, 0, 0, 1, 0, 0, 0, 0, 0\n0, 0, 0, 0]"] ;
234 -> 240 ;
241 [label="gini = 0.0\nsamples = 1\nvalue = [0, 0, 0, 0, 0, 0, 0, 0, 1, 0, 0, 0, 0, 0\n0, 0, 0, 0]"] ;
240 -> 241 ;
242 [label="gini = 0.0\nsamples = 1\nvalue = [0, 0, 0, 0, 0, 1, 0, 0, 0, 0, 0, 0, 0, 0\n0, 0, 0, 0]"] ;
240 -> 242 ;
243 [label="X[1] <= 3.5\ngini = 0.375\nsamples = 4\nvalue = [0, 0, 0, 0, 0, 0, 3, 0, 1, 0, 0, 0, 0, 0\n0, 0, 0, 0]"] ;
233 -> 243 ;
244 [label="gini = 0.0\nsamples = 1\nvalue = [0, 0, 0, 0, 0, 0, 0, 0, 1, 0, 0, 0, 0, 0\n0, 0, 0, 0]"] ;
243 -> 244 ;
245 [label="gini = 0.0\nsamples = 3\nvalue = [0, 0, 0, 0, 0, 0, 3, 0, 0, 0, 0, 0, 0, 0\n0, 0, 0, 0]"] ;
243 -> 245 ;
246 [label="gini = 0.0\nsamples = 8\nvalue = [0, 8, 0, 0, 0, 0, 0, 0, 0, 0, 0, 0, 0, 0\n0, 0, 0, 0]"] ;
232 -> 246 ;
247 [label="X[4] <= 1831.5\ngini = 0.508\nsamples = 38\nvalue = [0, 22, 0, 0, 0, 1, 0, 0, 15, 0, 0, 0, 0, 0\n0, 0, 0, 0]"] ;
231 -> 247 ;
248 [label="X[5] <= 690.5\ngini = 0.36\nsamples = 17\nvalue = [0, 13, 0, 0, 0, 0, 0, 0, 4, 0, 0, 0, 0, 0\n0, 0, 0, 0]"] ;
247 -> 248 ;
249 [label="X[5] <= 634.0\ngini = 0.245\nsamples = 14\nvalue = [0, 12, 0, 0, 0, 0, 0, 0, 2, 0, 0, 0, 0, 0\n0, 0, 0, 0]"] ;
248 -> 249 ;
250 [label="gini = 0.0\nsamples = 1\nvalue = [0, 0, 0, 0, 0, 0, 0, 0, 1, 0, 0, 0, 0, 0\n0, 0, 0, 0]"] ;
249 -> 250 ;
251 [label="X[2] <= 91.5\ngini = 0.142\nsamples = 13\nvalue = [0, 12, 0, 0, 0, 0, 0, 0, 1, 0, 0, 0, 0, 0\n0, 0, 0, 0]"] ;
249 -> 251 ;
252 [label="X[5] <= 658.0\ngini = 0.444\nsamples = 3\nvalue = [0, 2, 0, 0, 0, 0, 0, 0, 1, 0, 0, 0, 0, 0\n0, 0, 0, 0]"] ;
251 -> 252 ;
253 [label="gini = 0.0\nsamples = 1\nvalue = [0, 0, 0, 0, 0, 0, 0, 0, 1, 0, 0, 0, 0, 0\n0, 0, 0, 0]"] ;
252 -> 253 ;
254 [label="gini = 0.0\nsamples = 2\nvalue = [0, 2, 0, 0, 0, 0, 0, 0, 0, 0, 0, 0, 0, 0\n0, 0, 0, 0]"] ;
252 -> 254 ;
255 [label="gini = 0.0\nsamples = 10\nvalue = [0, 10, 0, 0, 0, 0, 0, 0, 0, 0, 0, 0, 0, 0\n0, 0, 0, 0]"] ;
251 -> 255 ;
256 [label="X[3] <= 250.0\ngini = 0.444\nsamples = 3\nvalue = [0, 1, 0, 0, 0, 0, 0, 0, 2, 0, 0, 0, 0, 0\n0, 0, 0, 0]"] ;
248 -> 256 ;
257 [label="gini = 0.0\nsamples = 2\nvalue = [0, 0, 0, 0, 0, 0, 0, 0, 2, 0, 0, 0, 0, 0\n0, 0, 0, 0]"] ;
256 -> 257 ;
258 [label="gini = 0.0\nsamples = 1\nvalue = [0, 1, 0, 0, 0, 0, 0, 0, 0, 0, 0, 0, 0, 0\n0, 0, 0, 0]"] ;
256 -> 258 ;
259 [label="X[4] <= 1836.5\ngini = 0.54\nsamples = 21\nvalue = [0, 9, 0, 0, 0, 1, 0, 0, 11, 0, 0, 0, 0, 0\n0, 0, 0, 0]"] ;
247 -> 259 ;
260 [label="gini = 0.0\nsamples = 3\nvalue = [0, 0, 0, 0, 0, 0, 0, 0, 3, 0, 0, 0, 0, 0\n0, 0, 0, 0]"] ;
259 -> 260 ;
261 [label="X[4] <= 1838.0\ngini = 0.549\nsamples = 18\nvalue = [0, 9, 0, 0, 0, 1, 0, 0, 8, 0, 0, 0, 0, 0\n0, 0, 0, 0]"] ;
259 -> 261 ;
262 [label="gini = 0.0\nsamples = 1\nvalue = [0, 0, 0, 0, 0, 1, 0, 0, 0, 0, 0, 0, 0, 0\n0, 0, 0, 0]"] ;
261 -> 262 ;
263 [label="X[4] <= 1842.5\ngini = 0.498\nsamples = 17\nvalue = [0, 9, 0, 0, 0, 0, 0, 0, 8, 0, 0, 0, 0, 0\n0, 0, 0, 0]"] ;
261 -> 263 ;
264 [label="X[5] <= 687.5\ngini = 0.42\nsamples = 10\nvalue = [0, 7, 0, 0, 0, 0, 0, 0, 3, 0, 0, 0, 0, 0\n0, 0, 0, 0]"] ;
263 -> 264 ;
265 [label="X[1] <= 6.5\ngini = 0.49\nsamples = 7\nvalue = [0, 4, 0, 0, 0, 0, 0, 0, 3, 0, 0, 0, 0, 0\n0, 0, 0, 0]"] ;
264 -> 265 ;
266 [label="gini = 0.0\nsamples = 2\nvalue = [0, 0, 0, 0, 0, 0, 0, 0, 2, 0, 0, 0, 0, 0\n0, 0, 0, 0]"] ;
265 -> 266 ;
267 [label="X[10] <= 4.05\ngini = 0.32\nsamples = 5\nvalue = [0, 4, 0, 0, 0, 0, 0, 0, 1, 0, 0, 0, 0, 0\n0, 0, 0, 0]"] ;
265 -> 267 ;
268 [label="X[10] <= 3.95\ngini = 0.5\nsamples = 2\nvalue = [0, 1, 0, 0, 0, 0, 0, 0, 1, 0, 0, 0, 0, 0\n0, 0, 0, 0]"] ;
267 -> 268 ;
269 [label="gini = 0.0\nsamples = 1\nvalue = [0, 1, 0, 0, 0, 0, 0, 0, 0, 0, 0, 0, 0, 0\n0, 0, 0, 0]"] ;
268 -> 269 ;
270 [label="gini = 0.0\nsamples = 1\nvalue = [0, 0, 0, 0, 0, 0, 0, 0, 1, 0, 0, 0, 0, 0\n0, 0, 0, 0]"] ;
268 -> 270 ;
271 [label="gini = 0.0\nsamples = 3\nvalue = [0, 3, 0, 0, 0, 0, 0, 0, 0, 0, 0, 0, 0, 0\n0, 0, 0, 0]"] ;
267 -> 271 ;
272 [label="gini = 0.0\nsamples = 3\nvalue = [0, 3, 0, 0, 0, 0, 0, 0, 0, 0, 0, 0, 0, 0\n0, 0, 0, 0]"] ;
264 -> 272 ;
273 [label="X[10] <= 4.85\ngini = 0.408\nsamples = 7\nvalue = [0, 2, 0, 0, 0, 0, 0, 0, 5, 0, 0, 0, 0, 0\n0, 0, 0, 0]"] ;
263 -> 273 ;
274 [label="X[10] <= 3.85\ngini = 0.278\nsamples = 6\nvalue = [0, 1, 0, 0, 0, 0, 0, 0, 5, 0, 0, 0, 0, 0\n0, 0, 0, 0]"] ;
273 -> 274 ;
275 [label="X[1] <= 12.5\ngini = 0.5\nsamples = 2\nvalue = [0, 1, 0, 0, 0, 0, 0, 0, 1, 0, 0, 0, 0, 0\n0, 0, 0, 0]"] ;
274 -> 275 ;
276 [label="gini = 0.0\nsamples = 1\nvalue = [0, 1, 0, 0, 0, 0, 0, 0, 0, 0, 0, 0, 0, 0\n0, 0, 0, 0]"] ;
275 -> 276 ;
277 [label="gini = 0.0\nsamples = 1\nvalue = [0, 0, 0, 0, 0, 0, 0, 0, 1, 0, 0, 0, 0, 0\n0, 0, 0, 0]"] ;
275 -> 277 ;
278 [label="gini = 0.0\nsamples = 4\nvalue = [0, 0, 0, 0, 0, 0, 0, 0, 4, 0, 0, 0, 0, 0\n0, 0, 0, 0]"] ;
274 -> 278 ;
279 [label="gini = 0.0\nsamples = 1\nvalue = [0, 1, 0, 0, 0, 0, 0, 0, 0, 0, 0, 0, 0, 0\n0, 0, 0, 0]"] ;
273 -> 279 ;
280 [label="gini = 0.0\nsamples = 2\nvalue = [0, 0, 0, 0, 0, 0, 0, 0, 2, 0, 0, 0, 0, 0\n0, 0, 0, 0]"] ;
230 -> 280 ;
281 [label="X[5] <= 651.0\ngini = 0.375\nsamples = 4\nvalue = [0, 0, 0, 0, 0, 0, 1, 0, 3, 0, 0, 0, 0, 0\n0, 0, 0, 0]"] ;
229 -> 281 ;
282 [label="gini = 0.0\nsamples = 1\nvalue = [0, 0, 0, 0, 0, 0, 1, 0, 0, 0, 0, 0, 0, 0\n0, 0, 0, 0]"] ;
281 -> 282 ;
283 [label="gini = 0.0\nsamples = 3\nvalue = [0, 0, 0, 0, 0, 0, 0, 0, 3, 0, 0, 0, 0, 0\n0, 0, 0, 0]"] ;
281 -> 283 ;
284 [label="X[2] <= 94.0\ngini = 0.219\nsamples = 8\nvalue = [0, 7, 0, 0, 0, 1, 0, 0, 0, 0, 0, 0, 0, 0\n0, 0, 0, 0]"] ;
228 -> 284 ;
285 [label="gini = 0.0\nsamples = 7\nvalue = [0, 7, 0, 0, 0, 0, 0, 0, 0, 0, 0, 0, 0, 0\n0, 0, 0, 0]"] ;
284 -> 285 ;
286 [label="gini = 0.0\nsamples = 1\nvalue = [0, 0, 0, 0, 0, 1, 0, 0, 0, 0, 0, 0, 0, 0\n0, 0, 0, 0]"] ;
284 -> 286 ;
287 [label="X[8] <= 5676.5\ngini = 0.304\nsamples = 625\nvalue = [0, 517, 0, 0, 0, 36, 20, 0, 52, 0, 0, 0, 0\n0, 0, 0, 0, 0]"] ;
3 -> 287 ;
288 [label="X[8] <= 5609.5\ngini = 0.498\nsamples = 32\nvalue = [0, 21, 0, 0, 0, 3, 0, 0, 8, 0, 0, 0, 0, 0\n0, 0, 0, 0]"] ;
287 -> 288 ;
289 [label="X[2] <= 96.0\ngini = 0.277\nsamples = 19\nvalue = [0, 16, 0, 0, 0, 1, 0, 0, 2, 0, 0, 0, 0, 0\n0, 0, 0, 0]"] ;
288 -> 289 ;
290 [label="X[10] <= 6.75\ngini = 0.198\nsamples = 18\nvalue = [0, 16, 0, 0, 0, 0, 0, 0, 2, 0, 0, 0, 0, 0\n0, 0, 0, 0]"] ;
289 -> 290 ;
291 [label="X[1] <= 17.5\ngini = 0.111\nsamples = 17\nvalue = [0, 16, 0, 0, 0, 0, 0, 0, 1, 0, 0, 0, 0, 0\n0, 0, 0, 0]"] ;
290 -> 291 ;
292 [label="gini = 0.0\nsamples = 14\nvalue = [0, 14, 0, 0, 0, 0, 0, 0, 0, 0, 0, 0, 0, 0\n0, 0, 0, 0]"] ;
291 -> 292 ;
293 [label="X[5] <= 780.0\ngini = 0.444\nsamples = 3\nvalue = [0, 2, 0, 0, 0, 0, 0, 0, 1, 0, 0, 0, 0, 0\n0, 0, 0, 0]"] ;
291 -> 293 ;
294 [label="gini = 0.0\nsamples = 2\nvalue = [0, 2, 0, 0, 0, 0, 0, 0, 0, 0, 0, 0, 0, 0\n0, 0, 0, 0]"] ;
293 -> 294 ;
295 [label="gini = 0.0\nsamples = 1\nvalue = [0, 0, 0, 0, 0, 0, 0, 0, 1, 0, 0, 0, 0, 0\n0, 0, 0, 0]"] ;
293 -> 295 ;
296 [label="gini = 0.0\nsamples = 1\nvalue = [0, 0, 0, 0, 0, 0, 0, 0, 1, 0, 0, 0, 0, 0\n0, 0, 0, 0]"] ;
290 -> 296 ;
297 [label="gini = 0.0\nsamples = 1\nvalue = [0, 0, 0, 0, 0, 1, 0, 0, 0, 0, 0, 0, 0, 0\n0, 0, 0, 0]"] ;
289 -> 297 ;
298 [label="X[5] <= 808.5\ngini = 0.615\nsamples = 13\nvalue = [0, 5, 0, 0, 0, 2, 0, 0, 6, 0, 0, 0, 0, 0\n0, 0, 0, 0]"] ;
288 -> 298 ;
299 [label="X[10] <= 6.1\ngini = 0.531\nsamples = 8\nvalue = [0, 1, 0, 0, 0, 2, 0, 0, 5, 0, 0, 0, 0, 0\n0, 0, 0, 0]"] ;
298 -> 299 ;
300 [label="gini = 0.0\nsamples = 2\nvalue = [0, 0, 0, 0, 0, 2, 0, 0, 0, 0, 0, 0, 0, 0\n0, 0, 0, 0]"] ;
299 -> 300 ;
301 [label="X[2] <= 81.5\ngini = 0.278\nsamples = 6\nvalue = [0, 1, 0, 0, 0, 0, 0, 0, 5, 0, 0, 0, 0, 0\n0, 0, 0, 0]"] ;
299 -> 301 ;
302 [label="gini = 0.0\nsamples = 1\nvalue = [0, 1, 0, 0, 0, 0, 0, 0, 0, 0, 0, 0, 0, 0\n0, 0, 0, 0]"] ;
301 -> 302 ;
303 [label="gini = 0.0\nsamples = 5\nvalue = [0, 0, 0, 0, 0, 0, 0, 0, 5, 0, 0, 0, 0, 0\n0, 0, 0, 0]"] ;
301 -> 303 ;
304 [label="X[5] <= 835.0\ngini = 0.32\nsamples = 5\nvalue = [0, 4, 0, 0, 0, 0, 0, 0, 1, 0, 0, 0, 0, 0\n0, 0, 0, 0]"] ;
298 -> 304 ;
305 [label="gini = 0.0\nsamples = 4\nvalue = [0, 4, 0, 0, 0, 0, 0, 0, 0, 0, 0, 0, 0, 0\n0, 0, 0, 0]"] ;
304 -> 305 ;
306 [label="gini = 0.0\nsamples = 1\nvalue = [0, 0, 0, 0, 0, 0, 0, 0, 1, 0, 0, 0, 0, 0\n0, 0, 0, 0]"] ;
304 -> 306 ;
307 [label="X[1] <= 11.5\ngini = 0.291\nsamples = 593\nvalue = [0, 496, 0, 0, 0, 33, 20, 0, 44, 0, 0, 0, 0\n0, 0, 0, 0, 0]"] ;
287 -> 307 ;
308 [label="X[5] <= 824.5\ngini = 0.263\nsamples = 506\nvalue = [0, 432, 0, 0, 0, 22, 16, 0, 36, 0, 0, 0, 0\n0, 0, 0, 0, 0]"] ;
307 -> 308 ;
309 [label="X[4] <= 1852.5\ngini = 0.204\nsamples = 218\nvalue = [0, 194, 0, 0, 0, 11, 6, 0, 7, 0, 0, 0, 0, 0\n0, 0, 0, 0]"] ;
308 -> 309 ;
310 [label="X[4] <= 1782.5\ngini = 0.129\nsamples = 118\nvalue = [0, 110, 0, 0, 0, 4, 2, 0, 2, 0, 0, 0, 0, 0\n0, 0, 0, 0]"] ;
309 -> 310 ;
311 [label="X[4] <= 1779.0\ngini = 0.254\nsamples = 21\nvalue = [0, 18, 0, 0, 0, 2, 1, 0, 0, 0, 0, 0, 0, 0\n0, 0, 0, 0]"] ;
310 -> 311 ;
312 [label="X[8] <= 5914.0\ngini = 0.185\nsamples = 20\nvalue = [0, 18, 0, 0, 0, 1, 1, 0, 0, 0, 0, 0, 0, 0\n0, 0, 0, 0]"] ;
311 -> 312 ;
313 [label="X[1] <= 3.5\ngini = 0.111\nsamples = 17\nvalue = [0, 16, 0, 0, 0, 1, 0, 0, 0, 0, 0, 0, 0, 0\n0, 0, 0, 0]"] ;
312 -> 313 ;
314 [label="X[4] <= 1757.0\ngini = 0.278\nsamples = 6\nvalue = [0, 5, 0, 0, 0, 1, 0, 0, 0, 0, 0, 0, 0, 0\n0, 0, 0, 0]"] ;
313 -> 314 ;
315 [label="gini = 0.0\nsamples = 1\nvalue = [0, 0, 0, 0, 0, 1, 0, 0, 0, 0, 0, 0, 0, 0\n0, 0, 0, 0]"] ;
314 -> 315 ;
316 [label="gini = 0.0\nsamples = 5\nvalue = [0, 5, 0, 0, 0, 0, 0, 0, 0, 0, 0, 0, 0, 0\n0, 0, 0, 0]"] ;
314 -> 316 ;
317 [label="gini = 0.0\nsamples = 11\nvalue = [0, 11, 0, 0, 0, 0, 0, 0, 0, 0, 0, 0, 0, 0\n0, 0, 0, 0]"] ;
313 -> 317 ;
318 [label="X[2] <= 90.0\ngini = 0.444\nsamples = 3\nvalue = [0, 2, 0, 0, 0, 0, 1, 0, 0, 0, 0, 0, 0, 0\n0, 0, 0, 0]"] ;
312 -> 318 ;
319 [label="gini = 0.0\nsamples = 1\nvalue = [0, 0, 0, 0, 0, 0, 1, 0, 0, 0, 0, 0, 0, 0\n0, 0, 0, 0]"] ;
318 -> 319 ;
320 [label="gini = 0.0\nsamples = 2\nvalue = [0, 2, 0, 0, 0, 0, 0, 0, 0, 0, 0, 0, 0, 0\n0, 0, 0, 0]"] ;
318 -> 320 ;
321 [label="gini = 0.0\nsamples = 1\nvalue = [0, 0, 0, 0, 0, 1, 0, 0, 0, 0, 0, 0, 0, 0\n0, 0, 0, 0]"] ;
311 -> 321 ;
322 [label="X[10] <= 4.95\ngini = 0.099\nsamples = 97\nvalue = [0, 92, 0, 0, 0, 2, 1, 0, 2, 0, 0, 0, 0, 0\n0, 0, 0, 0]"] ;
310 -> 322 ;
323 [label="X[5] <= 736.5\ngini = 0.2\nsamples = 37\nvalue = [0, 33, 0, 0, 0, 2, 1, 0, 1, 0, 0, 0, 0, 0\n0, 0, 0, 0]"] ;
322 -> 323 ;
324 [label="X[5] <= 730.0\ngini = 0.112\nsamples = 34\nvalue = [0, 32, 0, 0, 0, 1, 1, 0, 0, 0, 0, 0, 0, 0\n0, 0, 0, 0]"] ;
323 -> 324 ;
325 [label="X[4] <= 1844.5\ngini = 0.064\nsamples = 30\nvalue = [0, 29, 0, 0, 0, 0, 1, 0, 0, 0, 0, 0, 0, 0\n0, 0, 0, 0]"] ;
324 -> 325 ;
326 [label="gini = 0.0\nsamples = 23\nvalue = [0, 23, 0, 0, 0, 0, 0, 0, 0, 0, 0, 0, 0, 0\n0, 0, 0, 0]"] ;
325 -> 326 ;
327 [label="X[5] <= 727.5\ngini = 0.245\nsamples = 7\nvalue = [0, 6, 0, 0, 0, 0, 1, 0, 0, 0, 0, 0, 0, 0\n0, 0, 0, 0]"] ;
325 -> 327 ;
328 [label="gini = 0.444\nsamples = 3\nvalue = [0, 2, 0, 0, 0, 0, 1, 0, 0, 0, 0, 0, 0, 0\n0, 0, 0, 0]"] ;
327 -> 328 ;
329 [label="gini = 0.0\nsamples = 4\nvalue = [0, 4, 0, 0, 0, 0, 0, 0, 0, 0, 0, 0, 0, 0\n0, 0, 0, 0]"] ;
327 -> 329 ;
330 [label="X[5] <= 731.5\ngini = 0.375\nsamples = 4\nvalue = [0, 3, 0, 0, 0, 1, 0, 0, 0, 0, 0, 0, 0, 0\n0, 0, 0, 0]"] ;
324 -> 330 ;
331 [label="gini = 0.0\nsamples = 1\nvalue = [0, 0, 0, 0, 0, 1, 0, 0, 0, 0, 0, 0, 0, 0\n0, 0, 0, 0]"] ;
330 -> 331 ;
332 [label="gini = 0.0\nsamples = 3\nvalue = [0, 3, 0, 0, 0, 0, 0, 0, 0, 0, 0, 0, 0, 0\n0, 0, 0, 0]"] ;
330 -> 332 ;
333 [label="gini = 0.667\nsamples = 3\nvalue = [0, 1, 0, 0, 0, 1, 0, 0, 1, 0, 0, 0, 0, 0\n0, 0, 0, 0]"] ;
323 -> 333 ;
334 [label="X[5] <= 796.5\ngini = 0.033\nsamples = 60\nvalue = [0, 59, 0, 0, 0, 0, 0, 0, 1, 0, 0, 0, 0, 0\n0, 0, 0, 0]"] ;
322 -> 334 ;
335 [label="gini = 0.0\nsamples = 43\nvalue = [0, 43, 0, 0, 0, 0, 0, 0, 0, 0, 0, 0, 0, 0\n0, 0, 0, 0]"] ;
334 -> 335 ;
336 [label="X[5] <= 797.5\ngini = 0.111\nsamples = 17\nvalue = [0, 16, 0, 0, 0, 0, 0, 0, 1, 0, 0, 0, 0, 0\n0, 0, 0, 0]"] ;
334 -> 336 ;
337 [label="X[3] <= 249.5\ngini = 0.5\nsamples = 2\nvalue = [0, 1, 0, 0, 0, 0, 0, 0, 1, 0, 0, 0, 0, 0\n0, 0, 0, 0]"] ;
336 -> 337 ;
338 [label="gini = 0.0\nsamples = 1\nvalue = [0, 1, 0, 0, 0, 0, 0, 0, 0, 0, 0, 0, 0, 0\n0, 0, 0, 0]"] ;
337 -> 338 ;
339 [label="gini = 0.0\nsamples = 1\nvalue = [0, 0, 0, 0, 0, 0, 0, 0, 1, 0, 0, 0, 0, 0\n0, 0, 0, 0]"] ;
337 -> 339 ;
340 [label="gini = 0.0\nsamples = 15\nvalue = [0, 15, 0, 0, 0, 0, 0, 0, 0, 0, 0, 0, 0, 0\n0, 0, 0, 0]"] ;
336 -> 340 ;
341 [label="X[5] <= 803.5\ngini = 0.285\nsamples = 100\nvalue = [0, 84, 0, 0, 0, 7, 4, 0, 5, 0, 0, 0, 0, 0\n0, 0, 0, 0]"] ;
309 -> 341 ;
342 [label="X[10] <= 6.05\ngini = 0.35\nsamples = 79\nvalue = [0, 63, 0, 0, 0, 7, 4, 0, 5, 0, 0, 0, 0, 0\n0, 0, 0, 0]"] ;
341 -> 342 ;
343 [label="X[5] <= 802.5\ngini = 0.334\nsamples = 78\nvalue = [0, 63, 0, 0, 0, 7, 3, 0, 5, 0, 0, 0, 0, 0\n0, 0, 0, 0]"] ;
342 -> 343 ;
344 [label="X[1] <= 2.5\ngini = 0.31\nsamples = 74\nvalue = [0, 61, 0, 0, 0, 5, 3, 0, 5, 0, 0, 0, 0, 0\n0, 0, 0, 0]"] ;
343 -> 344 ;
345 [label="X[5] <= 797.5\ngini = 0.24\nsamples = 60\nvalue = [0, 52, 0, 0, 0, 4, 0, 0, 4, 0, 0, 0, 0, 0\n0, 0, 0, 0]"] ;
344 -> 345 ;
346 [label="X[7] <= 810.5\ngini = 0.21\nsamples = 52\nvalue = [0, 46, 0, 0, 0, 4, 0, 0, 2, 0, 0, 0, 0, 0\n0, 0, 0, 0]"] ;
345 -> 346 ;
347 [label="X[4] <= 1858.5\ngini = 0.142\nsamples = 39\nvalue = [0, 36, 0, 0, 0, 3, 0, 0, 0, 0, 0, 0, 0, 0\n0, 0, 0, 0]"] ;
346 -> 347 ;
348 [label="gini = 0.0\nsamples = 12\nvalue = [0, 12, 0, 0, 0, 0, 0, 0, 0, 0, 0, 0, 0, 0\n0, 0, 0, 0]"] ;
347 -> 348 ;
349 [label="X[4] <= 1859.5\ngini = 0.198\nsamples = 27\nvalue = [0, 24, 0, 0, 0, 3, 0, 0, 0, 0, 0, 0, 0, 0\n0, 0, 0, 0]"] ;
347 -> 349 ;
350 [label="X[5] <= 780.5\ngini = 0.444\nsamples = 3\nvalue = [0, 2, 0, 0, 0, 1, 0, 0, 0, 0, 0, 0, 0, 0\n0, 0, 0, 0]"] ;
349 -> 350 ;
351 [label="gini = 0.0\nsamples = 1\nvalue = [0, 0, 0, 0, 0, 1, 0, 0, 0, 0, 0, 0, 0, 0\n0, 0, 0, 0]"] ;
350 -> 351 ;
352 [label="gini = 0.0\nsamples = 2\nvalue = [0, 2, 0, 0, 0, 0, 0, 0, 0, 0, 0, 0, 0, 0\n0, 0, 0, 0]"] ;
350 -> 352 ;
353 [label="X[10] <= 5.75\ngini = 0.153\nsamples = 24\nvalue = [0, 22, 0, 0, 0, 2, 0, 0, 0, 0, 0, 0, 0, 0\n0, 0, 0, 0]"] ;
349 -> 353 ;
354 [label="X[4] <= 1862.5\ngini = 0.1\nsamples = 19\nvalue = [0, 18, 0, 0, 0, 1, 0, 0, 0, 0, 0, 0, 0, 0\n0, 0, 0, 0]"] ;
353 -> 354 ;
355 [label="X[5] <= 791.5\ngini = 0.219\nsamples = 8\nvalue = [0, 7, 0, 0, 0, 1, 0, 0, 0, 0, 0, 0, 0, 0\n0, 0, 0, 0]"] ;
354 -> 355 ;
356 [label="gini = 0.0\nsamples = 4\nvalue = [0, 4, 0, 0, 0, 0, 0, 0, 0, 0, 0, 0, 0, 0\n0, 0, 0, 0]"] ;
355 -> 356 ;
357 [label="gini = 0.375\nsamples = 4\nvalue = [0, 3, 0, 0, 0, 1, 0, 0, 0, 0, 0, 0, 0, 0\n0, 0, 0, 0]"] ;
355 -> 357 ;
358 [label="gini = 0.0\nsamples = 11\nvalue = [0, 11, 0, 0, 0, 0, 0, 0, 0, 0, 0, 0, 0, 0\n0, 0, 0, 0]"] ;
354 -> 358 ;
359 [label="X[4] <= 1867.5\ngini = 0.32\nsamples = 5\nvalue = [0, 4, 0, 0, 0, 1, 0, 0, 0, 0, 0, 0, 0, 0\n0, 0, 0, 0]"] ;
353 -> 359 ;
360 [label="X[1] <= 0.5\ngini = 0.444\nsamples = 3\nvalue = [0, 2, 0, 0, 0, 1, 0, 0, 0, 0, 0, 0, 0, 0\n0, 0, 0, 0]"] ;
359 -> 360 ;
361 [label="gini = 0.5\nsamples = 2\nvalue = [0, 1, 0, 0, 0, 1, 0, 0, 0, 0, 0, 0, 0, 0\n0, 0, 0, 0]"] ;
360 -> 361 ;
362 [label="gini = 0.0\nsamples = 1\nvalue = [0, 1, 0, 0, 0, 0, 0, 0, 0, 0, 0, 0, 0, 0\n0, 0, 0, 0]"] ;
360 -> 362 ;
363 [label="gini = 0.0\nsamples = 2\nvalue = [0, 2, 0, 0, 0, 0, 0, 0, 0, 0, 0, 0, 0, 0\n0, 0, 0, 0]"] ;
359 -> 363 ;
364 [label="X[5] <= 758.0\ngini = 0.379\nsamples = 13\nvalue = [0, 10, 0, 0, 0, 1, 0, 0, 2, 0, 0, 0, 0, 0\n0, 0, 0, 0]"] ;
346 -> 364 ;
365 [label="X[5] <= 755.0\ngini = 0.56\nsamples = 5\nvalue = [0, 3, 0, 0, 0, 1, 0, 0, 1, 0, 0, 0, 0, 0\n0, 0, 0, 0]"] ;
364 -> 365 ;
366 [label="X[1] <= 0.5\ngini = 0.444\nsamples = 3\nvalue = [0, 2, 0, 0, 0, 0, 0, 0, 1, 0, 0, 0, 0, 0\n0, 0, 0, 0]"] ;
365 -> 366 ;
367 [label="gini = 0.5\nsamples = 2\nvalue = [0, 1, 0, 0, 0, 0, 0, 0, 1, 0, 0, 0, 0, 0\n0, 0, 0, 0]"] ;
366 -> 367 ;
368 [label="gini = 0.0\nsamples = 1\nvalue = [0, 1, 0, 0, 0, 0, 0, 0, 0, 0, 0, 0, 0, 0\n0, 0, 0, 0]"] ;
366 -> 368 ;
369 [label="gini = 0.5\nsamples = 2\nvalue = [0, 1, 0, 0, 0, 1, 0, 0, 0, 0, 0, 0, 0, 0\n0, 0, 0, 0]"] ;
365 -> 369 ;
370 [label="X[10] <= 5.15\ngini = 0.219\nsamples = 8\nvalue = [0, 7, 0, 0, 0, 0, 0, 0, 1, 0, 0, 0, 0, 0\n0, 0, 0, 0]"] ;
364 -> 370 ;
371 [label="gini = 0.0\nsamples = 5\nvalue = [0, 5, 0, 0, 0, 0, 0, 0, 0, 0, 0, 0, 0, 0\n0, 0, 0, 0]"] ;
370 -> 371 ;
372 [label="X[4] <= 1855.5\ngini = 0.444\nsamples = 3\nvalue = [0, 2, 0, 0, 0, 0, 0, 0, 1, 0, 0, 0, 0, 0\n0, 0, 0, 0]"] ;
370 -> 372 ;
373 [label="gini = 0.0\nsamples = 1\nvalue = [0, 0, 0, 0, 0, 0, 0, 0, 1, 0, 0, 0, 0, 0\n0, 0, 0, 0]"] ;
372 -> 373 ;
374 [label="gini = 0.0\nsamples = 2\nvalue = [0, 2, 0, 0, 0, 0, 0, 0, 0, 0, 0, 0, 0, 0\n0, 0, 0, 0]"] ;
372 -> 374 ;
375 [label="X[10] <= 5.65\ngini = 0.375\nsamples = 8\nvalue = [0, 6, 0, 0, 0, 0, 0, 0, 2, 0, 0, 0, 0, 0\n0, 0, 0, 0]"] ;
345 -> 375 ;
376 [label="X[3] <= 254.5\ngini = 0.444\nsamples = 6\nvalue = [0, 4, 0, 0, 0, 0, 0, 0, 2, 0, 0, 0, 0, 0\n0, 0, 0, 0]"] ;
375 -> 376 ;
377 [label="gini = 0.0\nsamples = 1\nvalue = [0, 0, 0, 0, 0, 0, 0, 0, 1, 0, 0, 0, 0, 0\n0, 0, 0, 0]"] ;
376 -> 377 ;
378 [label="X[5] <= 799.5\ngini = 0.32\nsamples = 5\nvalue = [0, 4, 0, 0, 0, 0, 0, 0, 1, 0, 0, 0, 0, 0\n0, 0, 0, 0]"] ;
376 -> 378 ;
379 [label="gini = 0.0\nsamples = 1\nvalue = [0, 1, 0, 0, 0, 0, 0, 0, 0, 0, 0, 0, 0, 0\n0, 0, 0, 0]"] ;
378 -> 379 ;
380 [label="X[1] <= 0.5\ngini = 0.375\nsamples = 4\nvalue = [0, 3, 0, 0, 0, 0, 0, 0, 1, 0, 0, 0, 0, 0\n0, 0, 0, 0]"] ;
378 -> 380 ;
381 [label="gini = 0.444\nsamples = 3\nvalue = [0, 2, 0, 0, 0, 0, 0, 0, 1, 0, 0, 0, 0, 0\n0, 0, 0, 0]"] ;
380 -> 381 ;
382 [label="gini = 0.0\nsamples = 1\nvalue = [0, 1, 0, 0, 0, 0, 0, 0, 0, 0, 0, 0, 0, 0\n0, 0, 0, 0]"] ;
380 -> 382 ;
383 [label="gini = 0.0\nsamples = 2\nvalue = [0, 2, 0, 0, 0, 0, 0, 0, 0, 0, 0, 0, 0, 0\n0, 0, 0, 0]"] ;
375 -> 383 ;
384 [label="X[4] <= 1862.5\ngini = 0.531\nsamples = 14\nvalue = [0, 9, 0, 0, 0, 1, 3, 0, 1, 0, 0, 0, 0, 0\n0, 0, 0, 0]"] ;
344 -> 384 ;
385 [label="gini = 0.0\nsamples = 7\nvalue = [0, 7, 0, 0, 0, 0, 0, 0, 0, 0, 0, 0, 0, 0\n0, 0, 0, 0]"] ;
384 -> 385 ;
386 [label="X[8] <= 5910.0\ngini = 0.694\nsamples = 7\nvalue = [0, 2, 0, 0, 0, 1, 3, 0, 1, 0, 0, 0, 0, 0\n0, 0, 0, 0]"] ;
384 -> 386 ;
387 [label="gini = 0.0\nsamples = 1\nvalue = [0, 0, 0, 0, 0, 1, 0, 0, 0, 0, 0, 0, 0, 0\n0, 0, 0, 0]"] ;
386 -> 387 ;
388 [label="X[2] <= 96.5\ngini = 0.611\nsamples = 6\nvalue = [0, 2, 0, 0, 0, 0, 3, 0, 1, 0, 0, 0, 0, 0\n0, 0, 0, 0]"] ;
386 -> 388 ;
389 [label="gini = 0.0\nsamples = 1\nvalue = [0, 1, 0, 0, 0, 0, 0, 0, 0, 0, 0, 0, 0, 0\n0, 0, 0, 0]"] ;
388 -> 389 ;
390 [label="X[10] <= 5.75\ngini = 0.56\nsamples = 5\nvalue = [0, 1, 0, 0, 0, 0, 3, 0, 1, 0, 0, 0, 0, 0\n0, 0, 0, 0]"] ;
388 -> 390 ;
391 [label="X[2] <= 99.0\ngini = 0.5\nsamples = 2\nvalue = [0, 0, 0, 0, 0, 0, 1, 0, 1, 0, 0, 0, 0, 0\n0, 0, 0, 0]"] ;
390 -> 391 ;
392 [label="gini = 0.0\nsamples = 1\nvalue = [0, 0, 0, 0, 0, 0, 1, 0, 0, 0, 0, 0, 0, 0\n0, 0, 0, 0]"] ;
391 -> 392 ;
393 [label="gini = 0.0\nsamples = 1\nvalue = [0, 0, 0, 0, 0, 0, 0, 0, 1, 0, 0, 0, 0, 0\n0, 0, 0, 0]"] ;
391 -> 393 ;
394 [label="X[4] <= 1865.0\ngini = 0.444\nsamples = 3\nvalue = [0, 1, 0, 0, 0, 0, 2, 0, 0, 0, 0, 0, 0, 0\n0, 0, 0, 0]"] ;
390 -> 394 ;
395 [label="gini = 0.0\nsamples = 1\nvalue = [0, 0, 0, 0, 0, 0, 1, 0, 0, 0, 0, 0, 0, 0\n0, 0, 0, 0]"] ;
394 -> 395 ;
396 [label="gini = 0.5\nsamples = 2\nvalue = [0, 1, 0, 0, 0, 0, 1, 0, 0, 0, 0, 0, 0, 0\n0, 0, 0, 0]"] ;
394 -> 396 ;
397 [label="X[1] <= 0.5\ngini = 0.5\nsamples = 4\nvalue = [0, 2, 0, 0, 0, 2, 0, 0, 0, 0, 0, 0, 0, 0\n0, 0, 0, 0]"] ;
343 -> 397 ;
398 [label="gini = 0.444\nsamples = 3\nvalue = [0, 1, 0, 0, 0, 2, 0, 0, 0, 0, 0, 0, 0, 0\n0, 0, 0, 0]"] ;
397 -> 398 ;
399 [label="gini = 0.0\nsamples = 1\nvalue = [0, 1, 0, 0, 0, 0, 0, 0, 0, 0, 0, 0, 0, 0\n0, 0, 0, 0]"] ;
397 -> 399 ;
400 [label="gini = 0.0\nsamples = 1\nvalue = [0, 0, 0, 0, 0, 0, 1, 0, 0, 0, 0, 0, 0, 0\n0, 0, 0, 0]"] ;
342 -> 400 ;
401 [label="gini = 0.0\nsamples = 21\nvalue = [0, 21, 0, 0, 0, 0, 0, 0, 0, 0, 0, 0, 0, 0\n0, 0, 0, 0]"] ;
341 -> 401 ;
402 [label="X[8] <= 5876.5\ngini = 0.304\nsamples = 288\nvalue = [0, 238, 0, 0, 0, 11, 10, 0, 29, 0, 0, 0, 0\n0, 0, 0, 0, 0]"] ;
308 -> 402 ;
403 [label="X[2] <= 99.5\ngini = 0.568\nsamples = 31\nvalue = [0, 19, 0, 0, 0, 2, 5, 0, 5, 0, 0, 0, 0, 0\n0, 0, 0, 0]"] ;
402 -> 403 ;
404 [label="X[8] <= 5872.5\ngini = 0.497\nsamples = 28\nvalue = [0, 19, 0, 0, 0, 2, 2, 0, 5, 0, 0, 0, 0, 0\n0, 0, 0, 0]"] ;
403 -> 404 ;
405 [label="X[8] <= 5773.0\ngini = 0.435\nsamples = 26\nvalue = [0, 19, 0, 0, 0, 1, 2, 0, 4, 0, 0, 0, 0, 0\n0, 0, 0, 0]"] ;
404 -> 405 ;
406 [label="gini = 0.0\nsamples = 7\nvalue = [0, 7, 0, 0, 0, 0, 0, 0, 0, 0, 0, 0, 0, 0\n0, 0, 0, 0]"] ;
405 -> 406 ;
407 [label="X[8] <= 5780.0\ngini = 0.543\nsamples = 19\nvalue = [0, 12, 0, 0, 0, 1, 2, 0, 4, 0, 0, 0, 0, 0\n0, 0, 0, 0]"] ;
405 -> 407 ;
408 [label="X[10] <= 6.75\ngini = 0.444\nsamples = 3\nvalue = [0, 1, 0, 0, 0, 0, 0, 0, 2, 0, 0, 0, 0, 0\n0, 0, 0, 0]"] ;
407 -> 408 ;
409 [label="gini = 0.0\nsamples = 2\nvalue = [0, 0, 0, 0, 0, 0, 0, 0, 2, 0, 0, 0, 0, 0\n0, 0, 0, 0]"] ;
408 -> 409 ;
410 [label="gini = 0.0\nsamples = 1\nvalue = [0, 1, 0, 0, 0, 0, 0, 0, 0, 0, 0, 0, 0, 0\n0, 0, 0, 0]"] ;
408 -> 410 ;
411 [label="X[5] <= 834.0\ngini = 0.492\nsamples = 16\nvalue = [0, 11, 0, 0, 0, 1, 2, 0, 2, 0, 0, 0, 0, 0\n0, 0, 0, 0]"] ;
407 -> 411 ;
412 [label="gini = 0.0\nsamples = 1\nvalue = [0, 0, 0, 0, 0, 0, 0, 0, 1, 0, 0, 0, 0, 0\n0, 0, 0, 0]"] ;
411 -> 412 ;
413 [label="X[5] <= 889.5\ngini = 0.436\nsamples = 15\nvalue = [0, 11, 0, 0, 0, 1, 2, 0, 1, 0, 0, 0, 0, 0\n0, 0, 0, 0]"] ;
411 -> 413 ;
414 [label="X[1] <= 5.0\ngini = 0.18\nsamples = 10\nvalue = [0, 9, 0, 0, 0, 0, 1, 0, 0, 0, 0, 0, 0, 0\n0, 0, 0, 0]"] ;
413 -> 414 ;
415 [label="gini = 0.0\nsamples = 7\nvalue = [0, 7, 0, 0, 0, 0, 0, 0, 0, 0, 0, 0, 0, 0\n0, 0, 0, 0]"] ;
414 -> 415 ;
416 [label="X[5] <= 871.5\ngini = 0.444\nsamples = 3\nvalue = [0, 2, 0, 0, 0, 0, 1, 0, 0, 0, 0, 0, 0, 0\n0, 0, 0, 0]"] ;
414 -> 416 ;
417 [label="gini = 0.0\nsamples = 2\nvalue = [0, 2, 0, 0, 0, 0, 0, 0, 0, 0, 0, 0, 0, 0\n0, 0, 0, 0]"] ;
416 -> 417 ;
418 [label="gini = 0.0\nsamples = 1\nvalue = [0, 0, 0, 0, 0, 0, 1, 0, 0, 0, 0, 0, 0, 0\n0, 0, 0, 0]"] ;
416 -> 418 ;
419 [label="X[3] <= 252.5\ngini = 0.72\nsamples = 5\nvalue = [0, 2, 0, 0, 0, 1, 1, 0, 1, 0, 0, 0, 0, 0\n0, 0, 0, 0]"] ;
413 -> 419 ;
420 [label="X[7] <= 800.5\ngini = 0.667\nsamples = 3\nvalue = [0, 0, 0, 0, 0, 1, 1, 0, 1, 0, 0, 0, 0, 0\n0, 0, 0, 0]"] ;
419 -> 420 ;
421 [label="gini = 0.0\nsamples = 1\nvalue = [0, 0, 0, 0, 0, 0, 1, 0, 0, 0, 0, 0, 0, 0\n0, 0, 0, 0]"] ;
420 -> 421 ;
422 [label="X[5] <= 902.5\ngini = 0.5\nsamples = 2\nvalue = [0, 0, 0, 0, 0, 1, 0, 0, 1, 0, 0, 0, 0, 0\n0, 0, 0, 0]"] ;
420 -> 422 ;
423 [label="gini = 0.0\nsamples = 1\nvalue = [0, 0, 0, 0, 0, 0, 0, 0, 1, 0, 0, 0, 0, 0\n0, 0, 0, 0]"] ;
422 -> 423 ;
424 [label="gini = 0.0\nsamples = 1\nvalue = [0, 0, 0, 0, 0, 1, 0, 0, 0, 0, 0, 0, 0, 0\n0, 0, 0, 0]"] ;
422 -> 424 ;
425 [label="gini = 0.0\nsamples = 2\nvalue = [0, 2, 0, 0, 0, 0, 0, 0, 0, 0, 0, 0, 0, 0\n0, 0, 0, 0]"] ;
419 -> 425 ;
426 [label="X[4] <= 1848.5\ngini = 0.5\nsamples = 2\nvalue = [0, 0, 0, 0, 0, 1, 0, 0, 1, 0, 0, 0, 0, 0\n0, 0, 0, 0]"] ;
404 -> 426 ;
427 [label="gini = 0.0\nsamples = 1\nvalue = [0, 0, 0, 0, 0, 0, 0, 0, 1, 0, 0, 0, 0, 0\n0, 0, 0, 0]"] ;
426 -> 427 ;
428 [label="gini = 0.0\nsamples = 1\nvalue = [0, 0, 0, 0, 0, 1, 0, 0, 0, 0, 0, 0, 0, 0\n0, 0, 0, 0]"] ;
426 -> 428 ;
429 [label="gini = 0.0\nsamples = 3\nvalue = [0, 0, 0, 0, 0, 0, 3, 0, 0, 0, 0, 0, 0, 0\n0, 0, 0, 0]"] ;
403 -> 429 ;
430 [label="X[8] <= 5916.5\ngini = 0.264\nsamples = 257\nvalue = [0, 219, 0, 0, 0, 9, 5, 0, 24, 0, 0, 0, 0, 0\n0, 0, 0, 0]"] ;
402 -> 430 ;
431 [label="X[3] <= 240.5\ngini = 0.258\nsamples = 256\nvalue = [0, 219, 0, 0, 0, 8, 5, 0, 24, 0, 0, 0, 0, 0\n0, 0, 0, 0]"] ;
430 -> 431 ;
432 [label="X[1] <= 4.5\ngini = 0.5\nsamples = 4\nvalue = [0, 2, 0, 0, 0, 0, 0, 0, 2, 0, 0, 0, 0, 0\n0, 0, 0, 0]"] ;
431 -> 432 ;
433 [label="gini = 0.0\nsamples = 1\nvalue = [0, 0, 0, 0, 0, 0, 0, 0, 1, 0, 0, 0, 0, 0\n0, 0, 0, 0]"] ;
432 -> 433 ;
434 [label="X[5] <= 832.5\ngini = 0.444\nsamples = 3\nvalue = [0, 2, 0, 0, 0, 0, 0, 0, 1, 0, 0, 0, 0, 0\n0, 0, 0, 0]"] ;
432 -> 434 ;
435 [label="gini = 0.0\nsamples = 1\nvalue = [0, 0, 0, 0, 0, 0, 0, 0, 1, 0, 0, 0, 0, 0\n0, 0, 0, 0]"] ;
434 -> 435 ;
436 [label="gini = 0.0\nsamples = 2\nvalue = [0, 2, 0, 0, 0, 0, 0, 0, 0, 0, 0, 0, 0, 0\n0, 0, 0, 0]"] ;
434 -> 436 ;
437 [label="X[5] <= 915.5\ngini = 0.249\nsamples = 252\nvalue = [0, 217, 0, 0, 0, 8, 5, 0, 22, 0, 0, 0, 0, 0\n0, 0, 0, 0]"] ;
431 -> 437 ;
438 [label="X[4] <= 1859.5\ngini = 0.228\nsamples = 238\nvalue = [0, 208, 0, 0, 0, 6, 4, 0, 20, 0, 0, 0, 0, 0\n0, 0, 0, 0]"] ;
437 -> 438 ;
439 [label="X[10] <= 6.35\ngini = 0.331\nsamples = 94\nvalue = [0, 76, 0, 0, 0, 5, 3, 0, 10, 0, 0, 0, 0, 0\n0, 0, 0, 0]"] ;
438 -> 439 ;
440 [label="X[5] <= 867.0\ngini = 0.434\nsamples = 59\nvalue = [0, 43, 0, 0, 0, 4, 2, 0, 10, 0, 0, 0, 0, 0\n0, 0, 0, 0]"] ;
439 -> 440 ;
441 [label="X[3] <= 251.5\ngini = 0.326\nsamples = 32\nvalue = [0, 26, 0, 0, 0, 3, 1, 0, 2, 0, 0, 0, 0, 0\n0, 0, 0, 0]"] ;
440 -> 441 ;
442 [label="X[4] <= 1819.5\ngini = 0.625\nsamples = 4\nvalue = [0, 2, 0, 0, 0, 1, 0, 0, 1, 0, 0, 0, 0, 0\n0, 0, 0, 0]"] ;
441 -> 442 ;
443 [label="gini = 0.0\nsamples = 2\nvalue = [0, 2, 0, 0, 0, 0, 0, 0, 0, 0, 0, 0, 0, 0\n0, 0, 0, 0]"] ;
442 -> 443 ;
444 [label="X[5] <= 851.5\ngini = 0.5\nsamples = 2\nvalue = [0, 0, 0, 0, 0, 1, 0, 0, 1, 0, 0, 0, 0, 0\n0, 0, 0, 0]"] ;
442 -> 444 ;
445 [label="gini = 0.0\nsamples = 1\nvalue = [0, 0, 0, 0, 0, 0, 0, 0, 1, 0, 0, 0, 0, 0\n0, 0, 0, 0]"] ;
444 -> 445 ;
446 [label="gini = 0.0\nsamples = 1\nvalue = [0, 0, 0, 0, 0, 1, 0, 0, 0, 0, 0, 0, 0, 0\n0, 0, 0, 0]"] ;
444 -> 446 ;
447 [label="X[2] <= 99.5\ngini = 0.258\nsamples = 28\nvalue = [0, 24, 0, 0, 0, 2, 1, 0, 1, 0, 0, 0, 0, 0\n0, 0, 0, 0]"] ;
441 -> 447 ;
448 [label="gini = 0.0\nsamples = 14\nvalue = [0, 14, 0, 0, 0, 0, 0, 0, 0, 0, 0, 0, 0, 0\n0, 0, 0, 0]"] ;
447 -> 448 ;
449 [label="X[4] <= 1851.0\ngini = 0.459\nsamples = 14\nvalue = [0, 10, 0, 0, 0, 2, 1, 0, 1, 0, 0, 0, 0, 0\n0, 0, 0, 0]"] ;
447 -> 449 ;
450 [label="gini = 0.0\nsamples = 1\nvalue = [0, 0, 0, 0, 0, 0, 1, 0, 0, 0, 0, 0, 0, 0\n0, 0, 0, 0]"] ;
449 -> 450 ;
451 [label="X[5] <= 837.0\ngini = 0.379\nsamples = 13\nvalue = [0, 10, 0, 0, 0, 2, 0, 0, 1, 0, 0, 0, 0, 0\n0, 0, 0, 0]"] ;
449 -> 451 ;
452 [label="X[3] <= 254.5\ngini = 0.5\nsamples = 2\nvalue = [0, 1, 0, 0, 0, 0, 0, 0, 1, 0, 0, 0, 0, 0\n0, 0, 0, 0]"] ;
451 -> 452 ;
453 [label="gini = 0.0\nsamples = 1\nvalue = [0, 0, 0, 0, 0, 0, 0, 0, 1, 0, 0, 0, 0, 0\n0, 0, 0, 0]"] ;
452 -> 453 ;
454 [label="gini = 0.0\nsamples = 1\nvalue = [0, 1, 0, 0, 0, 0, 0, 0, 0, 0, 0, 0, 0, 0\n0, 0, 0, 0]"] ;
452 -> 454 ;
455 [label="X[4] <= 1856.5\ngini = 0.298\nsamples = 11\nvalue = [0, 9, 0, 0, 0, 2, 0, 0, 0, 0, 0, 0, 0, 0\n0, 0, 0, 0]"] ;
451 -> 455 ;
456 [label="X[10] <= 6.05\ngini = 0.198\nsamples = 9\nvalue = [0, 8, 0, 0, 0, 1, 0, 0, 0, 0, 0, 0, 0, 0\n0, 0, 0, 0]"] ;
455 -> 456 ;
457 [label="gini = 0.0\nsamples = 6\nvalue = [0, 6, 0, 0, 0, 0, 0, 0, 0, 0, 0, 0, 0, 0\n0, 0, 0, 0]"] ;
456 -> 457 ;
458 [label="X[5] <= 854.5\ngini = 0.444\nsamples = 3\nvalue = [0, 2, 0, 0, 0, 1, 0, 0, 0, 0, 0, 0, 0, 0\n0, 0, 0, 0]"] ;
456 -> 458 ;
459 [label="gini = 0.5\nsamples = 2\nvalue = [0, 1, 0, 0, 0, 1, 0, 0, 0, 0, 0, 0, 0, 0\n0, 0, 0, 0]"] ;
458 -> 459 ;
460 [label="gini = 0.0\nsamples = 1\nvalue = [0, 1, 0, 0, 0, 0, 0, 0, 0, 0, 0, 0, 0, 0\n0, 0, 0, 0]"] ;
458 -> 460 ;
461 [label="X[1] <= 0.5\ngini = 0.5\nsamples = 2\nvalue = [0, 1, 0, 0, 0, 1, 0, 0, 0, 0, 0, 0, 0, 0\n0, 0, 0, 0]"] ;
455 -> 461 ;
462 [label="gini = 0.0\nsamples = 1\nvalue = [0, 1, 0, 0, 0, 0, 0, 0, 0, 0, 0, 0, 0, 0\n0, 0, 0, 0]"] ;
461 -> 462 ;
463 [label="gini = 0.0\nsamples = 1\nvalue = [0, 0, 0, 0, 0, 1, 0, 0, 0, 0, 0, 0, 0, 0\n0, 0, 0, 0]"] ;
461 -> 463 ;
464 [label="X[5] <= 876.5\ngini = 0.513\nsamples = 27\nvalue = [0, 17, 0, 0, 0, 1, 1, 0, 8, 0, 0, 0, 0, 0\n0, 0, 0, 0]"] ;
440 -> 464 ;
465 [label="X[3] <= 252.0\ngini = 0.375\nsamples = 4\nvalue = [0, 1, 0, 0, 0, 0, 0, 0, 3, 0, 0, 0, 0, 0\n0, 0, 0, 0]"] ;
464 -> 465 ;
466 [label="gini = 0.0\nsamples = 1\nvalue = [0, 1, 0, 0, 0, 0, 0, 0, 0, 0, 0, 0, 0, 0\n0, 0, 0, 0]"] ;
465 -> 466 ;
467 [label="gini = 0.0\nsamples = 3\nvalue = [0, 0, 0, 0, 0, 0, 0, 0, 3, 0, 0, 0, 0, 0\n0, 0, 0, 0]"] ;
465 -> 467 ;
468 [label="X[10] <= 6.1\ngini = 0.465\nsamples = 23\nvalue = [0, 16, 0, 0, 0, 1, 1, 0, 5, 0, 0, 0, 0, 0\n0, 0, 0, 0]"] ;
464 -> 468 ;
469 [label="gini = 0.0\nsamples = 1\nvalue = [0, 0, 0, 0, 0, 0, 1, 0, 0, 0, 0, 0, 0, 0\n0, 0, 0, 0]"] ;
468 -> 469 ;
470 [label="X[4] <= 1845.5\ngini = 0.417\nsamples = 22\nvalue = [0, 16, 0, 0, 0, 1, 0, 0, 5, 0, 0, 0, 0, 0\n0, 0, 0, 0]"] ;
468 -> 470 ;
471 [label="X[8] <= 5913.0\ngini = 0.667\nsamples = 3\nvalue = [0, 1, 0, 0, 0, 1, 0, 0, 1, 0, 0, 0, 0, 0\n0, 0, 0, 0]"] ;
470 -> 471 ;
472 [label="gini = 0.0\nsamples = 1\nvalue = [0, 0, 0, 0, 0, 0, 0, 0, 1, 0, 0, 0, 0, 0\n0, 0, 0, 0]"] ;
471 -> 472 ;
473 [label="X[3] <= 251.0\ngini = 0.5\nsamples = 2\nvalue = [0, 1, 0, 0, 0, 1, 0, 0, 0, 0, 0, 0, 0, 0\n0, 0, 0, 0]"] ;
471 -> 473 ;
474 [label="gini = 0.0\nsamples = 1\nvalue = [0, 1, 0, 0, 0, 0, 0, 0, 0, 0, 0, 0, 0, 0\n0, 0, 0, 0]"] ;
473 -> 474 ;
475 [label="gini = 0.0\nsamples = 1\nvalue = [0, 0, 0, 0, 0, 1, 0, 0, 0, 0, 0, 0, 0, 0\n0, 0, 0, 0]"] ;
473 -> 475 ;
476 [label="X[5] <= 905.0\ngini = 0.332\nsamples = 19\nvalue = [0, 15, 0, 0, 0, 0, 0, 0, 4, 0, 0, 0, 0, 0\n0, 0, 0, 0]"] ;
470 -> 476 ;
477 [label="X[7] <= 810.5\ngini = 0.231\nsamples = 15\nvalue = [0, 13, 0, 0, 0, 0, 0, 0, 2, 0, 0, 0, 0, 0\n0, 0, 0, 0]"] ;
476 -> 477 ;
478 [label="gini = 0.0\nsamples = 7\nvalue = [0, 7, 0, 0, 0, 0, 0, 0, 0, 0, 0, 0, 0, 0\n0, 0, 0, 0]"] ;
477 -> 478 ;
479 [label="X[5] <= 889.5\ngini = 0.375\nsamples = 8\nvalue = [0, 6, 0, 0, 0, 0, 0, 0, 2, 0, 0, 0, 0, 0\n0, 0, 0, 0]"] ;
477 -> 479 ;
480 [label="gini = 0.0\nsamples = 1\nvalue = [0, 0, 0, 0, 0, 0, 0, 0, 1, 0, 0, 0, 0, 0\n0, 0, 0, 0]"] ;
479 -> 480 ;
481 [label="X[10] <= 6.25\ngini = 0.245\nsamples = 7\nvalue = [0, 6, 0, 0, 0, 0, 0, 0, 1, 0, 0, 0, 0, 0\n0, 0, 0, 0]"] ;
479 -> 481 ;
482 [label="X[1] <= 0.5\ngini = 0.375\nsamples = 4\nvalue = [0, 3, 0, 0, 0, 0, 0, 0, 1, 0, 0, 0, 0, 0\n0, 0, 0, 0]"] ;
481 -> 482 ;
483 [label="gini = 0.444\nsamples = 3\nvalue = [0, 2, 0, 0, 0, 0, 0, 0, 1, 0, 0, 0, 0, 0\n0, 0, 0, 0]"] ;
482 -> 483 ;
484 [label="gini = 0.0\nsamples = 1\nvalue = [0, 1, 0, 0, 0, 0, 0, 0, 0, 0, 0, 0, 0, 0\n0, 0, 0, 0]"] ;
482 -> 484 ;
485 [label="gini = 0.0\nsamples = 3\nvalue = [0, 3, 0, 0, 0, 0, 0, 0, 0, 0, 0, 0, 0, 0\n0, 0, 0, 0]"] ;
481 -> 485 ;
486 [label="X[4] <= 1857.0\ngini = 0.5\nsamples = 4\nvalue = [0, 2, 0, 0, 0, 0, 0, 0, 2, 0, 0, 0, 0, 0\n0, 0, 0, 0]"] ;
476 -> 486 ;
487 [label="gini = 0.0\nsamples = 1\nvalue = [0, 1, 0, 0, 0, 0, 0, 0, 0, 0, 0, 0, 0, 0\n0, 0, 0, 0]"] ;
486 -> 487 ;
488 [label="X[1] <= 1.5\ngini = 0.444\nsamples = 3\nvalue = [0, 1, 0, 0, 0, 0, 0, 0, 2, 0, 0, 0, 0, 0\n0, 0, 0, 0]"] ;
486 -> 488 ;
489 [label="gini = 0.5\nsamples = 2\nvalue = [0, 1, 0, 0, 0, 0, 0, 0, 1, 0, 0, 0, 0, 0\n0, 0, 0, 0]"] ;
488 -> 489 ;
490 [label="gini = 0.0\nsamples = 1\nvalue = [0, 0, 0, 0, 0, 0, 0, 0, 1, 0, 0, 0, 0, 0\n0, 0, 0, 0]"] ;
488 -> 490 ;
491 [label="X[10] <= 6.75\ngini = 0.109\nsamples = 35\nvalue = [0, 33, 0, 0, 0, 1, 1, 0, 0, 0, 0, 0, 0, 0\n0, 0, 0, 0]"] ;
439 -> 491 ;
492 [label="gini = 0.0\nsamples = 26\nvalue = [0, 26, 0, 0, 0, 0, 0, 0, 0, 0, 0, 0, 0, 0\n0, 0, 0, 0]"] ;
491 -> 492 ;
493 [label="X[3] <= 254.5\ngini = 0.37\nsamples = 9\nvalue = [0, 7, 0, 0, 0, 1, 1, 0, 0, 0, 0, 0, 0, 0\n0, 0, 0, 0]"] ;
491 -> 493 ;
494 [label="X[5] <= 893.0\ngini = 0.219\nsamples = 8\nvalue = [0, 7, 0, 0, 0, 1, 0, 0, 0, 0, 0, 0, 0, 0\n0, 0, 0, 0]"] ;
493 -> 494 ;
495 [label="gini = 0.0\nsamples = 5\nvalue = [0, 5, 0, 0, 0, 0, 0, 0, 0, 0, 0, 0, 0, 0\n0, 0, 0, 0]"] ;
494 -> 495 ;
496 [label="X[8] <= 5911.5\ngini = 0.444\nsamples = 3\nvalue = [0, 2, 0, 0, 0, 1, 0, 0, 0, 0, 0, 0, 0, 0\n0, 0, 0, 0]"] ;
494 -> 496 ;
497 [label="gini = 0.0\nsamples = 1\nvalue = [0, 0, 0, 0, 0, 1, 0, 0, 0, 0, 0, 0, 0, 0\n0, 0, 0, 0]"] ;
496 -> 497 ;
498 [label="gini = 0.0\nsamples = 2\nvalue = [0, 2, 0, 0, 0, 0, 0, 0, 0, 0, 0, 0, 0, 0\n0, 0, 0, 0]"] ;
496 -> 498 ;
499 [label="gini = 0.0\nsamples = 1\nvalue = [0, 0, 0, 0, 0, 0, 1, 0, 0, 0, 0, 0, 0, 0\n0, 0, 0, 0]"] ;
493 -> 499 ;
500 [label="X[5] <= 826.0\ngini = 0.155\nsamples = 144\nvalue = [0, 132, 0, 0, 0, 1, 1, 0, 10, 0, 0, 0, 0, 0\n0, 0, 0, 0]"] ;
438 -> 500 ;
501 [label="X[1] <= 0.5\ngini = 0.444\nsamples = 3\nvalue = [0, 2, 0, 0, 0, 0, 0, 0, 1, 0, 0, 0, 0, 0\n0, 0, 0, 0]"] ;
500 -> 501 ;
502 [label="gini = 0.0\nsamples = 2\nvalue = [0, 2, 0, 0, 0, 0, 0, 0, 0, 0, 0, 0, 0, 0\n0, 0, 0, 0]"] ;
501 -> 502 ;
503 [label="gini = 0.0\nsamples = 1\nvalue = [0, 0, 0, 0, 0, 0, 0, 0, 1, 0, 0, 0, 0, 0\n0, 0, 0, 0]"] ;
501 -> 503 ;
504 [label="X[5] <= 908.5\ngini = 0.146\nsamples = 141\nvalue = [0, 130, 0, 0, 0, 1, 1, 0, 9, 0, 0, 0, 0, 0\n0, 0, 0, 0]"] ;
500 -> 504 ;
505 [label="X[5] <= 903.5\ngini = 0.173\nsamples = 117\nvalue = [0, 106, 0, 0, 0, 1, 1, 0, 9, 0, 0, 0, 0, 0\n0, 0, 0, 0]"] ;
504 -> 505 ;
506 [label="X[8] <= 5912.5\ngini = 0.127\nsamples = 104\nvalue = [0, 97, 0, 0, 0, 0, 1, 0, 6, 0, 0, 0, 0, 0\n0, 0, 0, 0]"] ;
505 -> 506 ;
507 [label="X[5] <= 891.0\ngini = 0.111\nsamples = 102\nvalue = [0, 96, 0, 0, 0, 0, 0, 0, 6, 0, 0, 0, 0, 0\n0, 0, 0, 0]"] ;
506 -> 507 ;
508 [label="X[5] <= 888.0\ngini = 0.145\nsamples = 76\nvalue = [0, 70, 0, 0, 0, 0, 0, 0, 6, 0, 0, 0, 0, 0\n0, 0, 0, 0]"] ;
507 -> 508 ;
509 [label="X[10] <= 6.05\ngini = 0.108\nsamples = 70\nvalue = [0, 66, 0, 0, 0, 0, 0, 0, 4, 0, 0, 0, 0, 0\n0, 0, 0, 0]"] ;
508 -> 509 ;
510 [label="X[5] <= 843.0\ngini = 0.204\nsamples = 26\nvalue = [0, 23, 0, 0, 0, 0, 0, 0, 3, 0, 0, 0, 0, 0\n0, 0, 0, 0]"] ;
509 -> 510 ;
511 [label="gini = 0.0\nsamples = 19\nvalue = [0, 19, 0, 0, 0, 0, 0, 0, 0, 0, 0, 0, 0, 0\n0, 0, 0, 0]"] ;
510 -> 511 ;
512 [label="X[5] <= 849.0\ngini = 0.49\nsamples = 7\nvalue = [0, 4, 0, 0, 0, 0, 0, 0, 3, 0, 0, 0, 0, 0\n0, 0, 0, 0]"] ;
510 -> 512 ;
513 [label="gini = 0.0\nsamples = 3\nvalue = [0, 0, 0, 0, 0, 0, 0, 0, 3, 0, 0, 0, 0, 0\n0, 0, 0, 0]"] ;
512 -> 513 ;
514 [label="gini = 0.0\nsamples = 4\nvalue = [0, 4, 0, 0, 0, 0, 0, 0, 0, 0, 0, 0, 0, 0\n0, 0, 0, 0]"] ;
512 -> 514 ;
515 [label="X[5] <= 883.5\ngini = 0.044\nsamples = 44\nvalue = [0, 43, 0, 0, 0, 0, 0, 0, 1, 0, 0, 0, 0, 0\n0, 0, 0, 0]"] ;
509 -> 515 ;
516 [label="gini = 0.0\nsamples = 38\nvalue = [0, 38, 0, 0, 0, 0, 0, 0, 0, 0, 0, 0, 0, 0\n0, 0, 0, 0]"] ;
515 -> 516 ;
517 [label="X[5] <= 884.5\ngini = 0.278\nsamples = 6\nvalue = [0, 5, 0, 0, 0, 0, 0, 0, 1, 0, 0, 0, 0, 0\n0, 0, 0, 0]"] ;
515 -> 517 ;
518 [label="gini = 0.0\nsamples = 1\nvalue = [0, 0, 0, 0, 0, 0, 0, 0, 1, 0, 0, 0, 0, 0\n0, 0, 0, 0]"] ;
517 -> 518 ;
519 [label="gini = 0.0\nsamples = 5\nvalue = [0, 5, 0, 0, 0, 0, 0, 0, 0, 0, 0, 0, 0, 0\n0, 0, 0, 0]"] ;
517 -> 519 ;
520 [label="X[4] <= 1865.5\ngini = 0.444\nsamples = 6\nvalue = [0, 4, 0, 0, 0, 0, 0, 0, 2, 0, 0, 0, 0, 0\n0, 0, 0, 0]"] ;
508 -> 520 ;
521 [label="gini = 0.0\nsamples = 1\nvalue = [0, 1, 0, 0, 0, 0, 0, 0, 0, 0, 0, 0, 0, 0\n0, 0, 0, 0]"] ;
520 -> 521 ;
522 [label="X[1] <= 0.5\ngini = 0.48\nsamples = 5\nvalue = [0, 3, 0, 0, 0, 0, 0, 0, 2, 0, 0, 0, 0, 0\n0, 0, 0, 0]"] ;
520 -> 522 ;
523 [label="X[8] <= 5909.5\ngini = 0.375\nsamples = 4\nvalue = [0, 3, 0, 0, 0, 0, 0, 0, 1, 0, 0, 0, 0, 0\n0, 0, 0, 0]"] ;
522 -> 523 ;
524 [label="gini = 0.444\nsamples = 3\nvalue = [0, 2, 0, 0, 0, 0, 0, 0, 1, 0, 0, 0, 0, 0\n0, 0, 0, 0]"] ;
523 -> 524 ;
525 [label="gini = 0.0\nsamples = 1\nvalue = [0, 1, 0, 0, 0, 0, 0, 0, 0, 0, 0, 0, 0, 0\n0, 0, 0, 0]"] ;
523 -> 525 ;
526 [label="gini = 0.0\nsamples = 1\nvalue = [0, 0, 0, 0, 0, 0, 0, 0, 1, 0, 0, 0, 0, 0\n0, 0, 0, 0]"] ;
522 -> 526 ;
527 [label="gini = 0.0\nsamples = 26\nvalue = [0, 26, 0, 0, 0, 0, 0, 0, 0, 0, 0, 0, 0, 0\n0, 0, 0, 0]"] ;
507 -> 527 ;
528 [label="X[3] <= 255.5\ngini = 0.5\nsamples = 2\nvalue = [0, 1, 0, 0, 0, 0, 1, 0, 0, 0, 0, 0, 0, 0\n0, 0, 0, 0]"] ;
506 -> 528 ;
529 [label="gini = 0.0\nsamples = 1\nvalue = [0, 1, 0, 0, 0, 0, 0, 0, 0, 0, 0, 0, 0, 0\n0, 0, 0, 0]"] ;
528 -> 529 ;
530 [label="gini = 0.0\nsamples = 1\nvalue = [0, 0, 0, 0, 0, 0, 1, 0, 0, 0, 0, 0, 0, 0\n0, 0, 0, 0]"] ;
528 -> 530 ;
531 [label="X[10] <= 6.65\ngini = 0.462\nsamples = 13\nvalue = [0, 9, 0, 0, 0, 1, 0, 0, 3, 0, 0, 0, 0, 0\n0, 0, 0, 0]"] ;
505 -> 531 ;
532 [label="gini = 0.5\nsamples = 4\nvalue = [0, 2, 0, 0, 0, 0, 0, 0, 2, 0, 0, 0, 0, 0\n0, 0, 0, 0]"] ;
531 -> 532 ;
533 [label="X[5] <= 907.5\ngini = 0.37\nsamples = 9\nvalue = [0, 7, 0, 0, 0, 1, 0, 0, 1, 0, 0, 0, 0, 0\n0, 0, 0, 0]"] ;
531 -> 533 ;
534 [label="X[5] <= 906.0\ngini = 0.245\nsamples = 7\nvalue = [0, 6, 0, 0, 0, 0, 0, 0, 1, 0, 0, 0, 0, 0\n0, 0, 0, 0]"] ;
533 -> 534 ;
535 [label="gini = 0.0\nsamples = 3\nvalue = [0, 3, 0, 0, 0, 0, 0, 0, 0, 0, 0, 0, 0, 0\n0, 0, 0, 0]"] ;
534 -> 535 ;
536 [label="X[10] <= 6.75\ngini = 0.375\nsamples = 4\nvalue = [0, 3, 0, 0, 0, 0, 0, 0, 1, 0, 0, 0, 0, 0\n0, 0, 0, 0]"] ;
534 -> 536 ;
537 [label="gini = 0.0\nsamples = 1\nvalue = [0, 1, 0, 0, 0, 0, 0, 0, 0, 0, 0, 0, 0, 0\n0, 0, 0, 0]"] ;
536 -> 537 ;
538 [label="gini = 0.444\nsamples = 3\nvalue = [0, 2, 0, 0, 0, 0, 0, 0, 1, 0, 0, 0, 0, 0\n0, 0, 0, 0]"] ;
536 -> 538 ;
539 [label="gini = 0.5\nsamples = 2\nvalue = [0, 1, 0, 0, 0, 1, 0, 0, 0, 0, 0, 0, 0, 0\n0, 0, 0, 0]"] ;
533 -> 539 ;
540 [label="gini = 0.0\nsamples = 24\nvalue = [0, 24, 0, 0, 0, 0, 0, 0, 0, 0, 0, 0, 0, 0\n0, 0, 0, 0]"] ;
504 -> 540 ;
541 [label="X[10] <= 6.65\ngini = 0.541\nsamples = 14\nvalue = [0, 9, 0, 0, 0, 2, 1, 0, 2, 0, 0, 0, 0, 0\n0, 0, 0, 0]"] ;
437 -> 541 ;
542 [label="gini = 0.667\nsamples = 3\nvalue = [0, 1, 0, 0, 0, 1, 0, 0, 1, 0, 0, 0, 0, 0\n0, 0, 0, 0]"] ;
541 -> 542 ;
543 [label="X[10] <= 6.75\ngini = 0.446\nsamples = 11\nvalue = [0, 8, 0, 0, 0, 1, 1, 0, 1, 0, 0, 0, 0, 0\n0, 0, 0, 0]"] ;
541 -> 543 ;
544 [label="X[4] <= 1863.5\ngini = 0.37\nsamples = 9\nvalue = [0, 7, 0, 0, 0, 0, 1, 0, 1, 0, 0, 0, 0, 0\n0, 0, 0, 0]"] ;
543 -> 544 ;
545 [label="gini = 0.5\nsamples = 2\nvalue = [0, 1, 0, 0, 0, 0, 1, 0, 0, 0, 0, 0, 0, 0\n0, 0, 0, 0]"] ;
544 -> 545 ;
546 [label="X[4] <= 1865.0\ngini = 0.245\nsamples = 7\nvalue = [0, 6, 0, 0, 0, 0, 0, 0, 1, 0, 0, 0, 0, 0\n0, 0, 0, 0]"] ;
544 -> 546 ;
547 [label="gini = 0.444\nsamples = 3\nvalue = [0, 2, 0, 0, 0, 0, 0, 0, 1, 0, 0, 0, 0, 0\n0, 0, 0, 0]"] ;
546 -> 547 ;
548 [label="gini = 0.0\nsamples = 4\nvalue = [0, 4, 0, 0, 0, 0, 0, 0, 0, 0, 0, 0, 0, 0\n0, 0, 0, 0]"] ;
546 -> 548 ;
549 [label="gini = 0.5\nsamples = 2\nvalue = [0, 1, 0, 0, 0, 1, 0, 0, 0, 0, 0, 0, 0, 0\n0, 0, 0, 0]"] ;
543 -> 549 ;
550 [label="gini = 0.0\nsamples = 1\nvalue = [0, 0, 0, 0, 0, 1, 0, 0, 0, 0, 0, 0, 0, 0\n0, 0, 0, 0]"] ;
430 -> 550 ;
551 [label="X[7] <= 810.5\ngini = 0.432\nsamples = 87\nvalue = [0, 64, 0, 0, 0, 11, 4, 0, 8, 0, 0, 0, 0, 0\n0, 0, 0, 0]"] ;
307 -> 551 ;
552 [label="X[5] <= 731.5\ngini = 0.388\nsamples = 82\nvalue = [0, 63, 0, 0, 0, 10, 3, 0, 6, 0, 0, 0, 0, 0\n0, 0, 0, 0]"] ;
551 -> 552 ;
553 [label="X[2] <= 94.5\ngini = 0.642\nsamples = 18\nvalue = [0, 9, 0, 0, 0, 5, 1, 0, 3, 0, 0, 0, 0, 0\n0, 0, 0, 0]"] ;
552 -> 553 ;
554 [label="X[1] <= 21.5\ngini = 0.56\nsamples = 15\nvalue = [0, 9, 0, 0, 0, 3, 0, 0, 3, 0, 0, 0, 0, 0\n0, 0, 0, 0]"] ;
553 -> 554 ;
555 [label="X[3] <= 238.5\ngini = 0.656\nsamples = 8\nvalue = [0, 3, 0, 0, 0, 2, 0, 0, 3, 0, 0, 0, 0, 0\n0, 0, 0, 0]"] ;
554 -> 555 ;
556 [label="X[5] <= 709.5\ngini = 0.375\nsamples = 4\nvalue = [0, 1, 0, 0, 0, 0, 0, 0, 3, 0, 0, 0, 0, 0\n0, 0, 0, 0]"] ;
555 -> 556 ;
557 [label="gini = 0.0\nsamples = 1\nvalue = [0, 1, 0, 0, 0, 0, 0, 0, 0, 0, 0, 0, 0, 0\n0, 0, 0, 0]"] ;
556 -> 557 ;
558 [label="gini = 0.0\nsamples = 3\nvalue = [0, 0, 0, 0, 0, 0, 0, 0, 3, 0, 0, 0, 0, 0\n0, 0, 0, 0]"] ;
556 -> 558 ;
559 [label="X[2] <= 89.5\ngini = 0.5\nsamples = 4\nvalue = [0, 2, 0, 0, 0, 2, 0, 0, 0, 0, 0, 0, 0, 0\n0, 0, 0, 0]"] ;
555 -> 559 ;
560 [label="gini = 0.0\nsamples = 2\nvalue = [0, 0, 0, 0, 0, 2, 0, 0, 0, 0, 0, 0, 0, 0\n0, 0, 0, 0]"] ;
559 -> 560 ;
561 [label="gini = 0.0\nsamples = 2\nvalue = [0, 2, 0, 0, 0, 0, 0, 0, 0, 0, 0, 0, 0, 0\n0, 0, 0, 0]"] ;
559 -> 561 ;
562 [label="X[5] <= 726.5\ngini = 0.245\nsamples = 7\nvalue = [0, 6, 0, 0, 0, 1, 0, 0, 0, 0, 0, 0, 0, 0\n0, 0, 0, 0]"] ;
554 -> 562 ;
563 [label="gini = 0.0\nsamples = 6\nvalue = [0, 6, 0, 0, 0, 0, 0, 0, 0, 0, 0, 0, 0, 0\n0, 0, 0, 0]"] ;
562 -> 563 ;
564 [label="gini = 0.0\nsamples = 1\nvalue = [0, 0, 0, 0, 0, 1, 0, 0, 0, 0, 0, 0, 0, 0\n0, 0, 0, 0]"] ;
562 -> 564 ;
565 [label="X[5] <= 723.0\ngini = 0.444\nsamples = 3\nvalue = [0, 0, 0, 0, 0, 2, 1, 0, 0, 0, 0, 0, 0, 0\n0, 0, 0, 0]"] ;
553 -> 565 ;
566 [label="gini = 0.0\nsamples = 2\nvalue = [0, 0, 0, 0, 0, 2, 0, 0, 0, 0, 0, 0, 0, 0\n0, 0, 0, 0]"] ;
565 -> 566 ;
567 [label="gini = 0.0\nsamples = 1\nvalue = [0, 0, 0, 0, 0, 0, 1, 0, 0, 0, 0, 0, 0, 0\n0, 0, 0, 0]"] ;
565 -> 567 ;
568 [label="X[10] <= 6.75\ngini = 0.279\nsamples = 64\nvalue = [0, 54, 0, 0, 0, 5, 2, 0, 3, 0, 0, 0, 0, 0\n0, 0, 0, 0]"] ;
552 -> 568 ;
569 [label="X[1] <= 25.5\ngini = 0.206\nsamples = 53\nvalue = [0, 47, 0, 0, 0, 4, 2, 0, 0, 0, 0, 0, 0, 0\n0, 0, 0, 0]"] ;
568 -> 569 ;
570 [label="X[5] <= 860.0\ngini = 0.121\nsamples = 47\nvalue = [0, 44, 0, 0, 0, 2, 1, 0, 0, 0, 0, 0, 0, 0\n0, 0, 0, 0]"] ;
569 -> 570 ;
571 [label="X[5] <= 740.0\ngini = 0.088\nsamples = 44\nvalue = [0, 42, 0, 0, 0, 1, 1, 0, 0, 0, 0, 0, 0, 0\n0, 0, 0, 0]"] ;
570 -> 571 ;
572 [label="X[8] <= 5888.0\ngini = 0.375\nsamples = 4\nvalue = [0, 3, 0, 0, 0, 0, 1, 0, 0, 0, 0, 0, 0, 0\n0, 0, 0, 0]"] ;
571 -> 572 ;
573 [label="X[7] <= 795.5\ngini = 0.5\nsamples = 2\nvalue = [0, 1, 0, 0, 0, 0, 1, 0, 0, 0, 0, 0, 0, 0\n0, 0, 0, 0]"] ;
572 -> 573 ;
574 [label="gini = 0.0\nsamples = 1\nvalue = [0, 1, 0, 0, 0, 0, 0, 0, 0, 0, 0, 0, 0, 0\n0, 0, 0, 0]"] ;
573 -> 574 ;
575 [label="gini = 0.0\nsamples = 1\nvalue = [0, 0, 0, 0, 0, 0, 1, 0, 0, 0, 0, 0, 0, 0\n0, 0, 0, 0]"] ;
573 -> 575 ;
576 [label="gini = 0.0\nsamples = 2\nvalue = [0, 2, 0, 0, 0, 0, 0, 0, 0, 0, 0, 0, 0, 0\n0, 0, 0, 0]"] ;
572 -> 576 ;
577 [label="X[10] <= 6.65\ngini = 0.049\nsamples = 40\nvalue = [0, 39, 0, 0, 0, 1, 0, 0, 0, 0, 0, 0, 0, 0\n0, 0, 0, 0]"] ;
571 -> 577 ;
578 [label="gini = 0.0\nsamples = 35\nvalue = [0, 35, 0, 0, 0, 0, 0, 0, 0, 0, 0, 0, 0, 0\n0, 0, 0, 0]"] ;
577 -> 578 ;
579 [label="X[2] <= 86.5\ngini = 0.32\nsamples = 5\nvalue = [0, 4, 0, 0, 0, 1, 0, 0, 0, 0, 0, 0, 0, 0\n0, 0, 0, 0]"] ;
577 -> 579 ;
580 [label="gini = 0.0\nsamples = 4\nvalue = [0, 4, 0, 0, 0, 0, 0, 0, 0, 0, 0, 0, 0, 0\n0, 0, 0, 0]"] ;
579 -> 580 ;
581 [label="gini = 0.0\nsamples = 1\nvalue = [0, 0, 0, 0, 0, 1, 0, 0, 0, 0, 0, 0, 0, 0\n0, 0, 0, 0]"] ;
579 -> 581 ;
582 [label="X[10] <= 6.25\ngini = 0.444\nsamples = 3\nvalue = [0, 2, 0, 0, 0, 1, 0, 0, 0, 0, 0, 0, 0, 0\n0, 0, 0, 0]"] ;
570 -> 582 ;
583 [label="gini = 0.0\nsamples = 1\nvalue = [0, 0, 0, 0, 0, 1, 0, 0, 0, 0, 0, 0, 0, 0\n0, 0, 0, 0]"] ;
582 -> 583 ;
584 [label="gini = 0.0\nsamples = 2\nvalue = [0, 2, 0, 0, 0, 0, 0, 0, 0, 0, 0, 0, 0, 0\n0, 0, 0, 0]"] ;
582 -> 584 ;
585 [label="X[1] <= 28.5\ngini = 0.611\nsamples = 6\nvalue = [0, 3, 0, 0, 0, 2, 1, 0, 0, 0, 0, 0, 0, 0\n0, 0, 0, 0]"] ;
569 -> 585 ;
586 [label="gini = 0.0\nsamples = 2\nvalue = [0, 0, 0, 0, 0, 2, 0, 0, 0, 0, 0, 0, 0, 0\n0, 0, 0, 0]"] ;
585 -> 586 ;
587 [label="X[7] <= 807.0\ngini = 0.375\nsamples = 4\nvalue = [0, 3, 0, 0, 0, 0, 1, 0, 0, 0, 0, 0, 0, 0\n0, 0, 0, 0]"] ;
585 -> 587 ;
588 [label="gini = 0.0\nsamples = 1\nvalue = [0, 0, 0, 0, 0, 0, 1, 0, 0, 0, 0, 0, 0, 0\n0, 0, 0, 0]"] ;
587 -> 588 ;
589 [label="gini = 0.0\nsamples = 3\nvalue = [0, 3, 0, 0, 0, 0, 0, 0, 0, 0, 0, 0, 0, 0\n0, 0, 0, 0]"] ;
587 -> 589 ;
590 [label="X[1] <= 16.5\ngini = 0.512\nsamples = 11\nvalue = [0, 7, 0, 0, 0, 1, 0, 0, 3, 0, 0, 0, 0, 0\n0, 0, 0, 0]"] ;
568 -> 590 ;
591 [label="X[5] <= 776.0\ngini = 0.611\nsamples = 6\nvalue = [0, 2, 0, 0, 0, 1, 0, 0, 3, 0, 0, 0, 0, 0\n0, 0, 0, 0]"] ;
590 -> 591 ;
592 [label="gini = 0.0\nsamples = 1\nvalue = [0, 0, 0, 0, 0, 1, 0, 0, 0, 0, 0, 0, 0, 0\n0, 0, 0, 0]"] ;
591 -> 592 ;
593 [label="X[2] <= 93.5\ngini = 0.48\nsamples = 5\nvalue = [0, 2, 0, 0, 0, 0, 0, 0, 3, 0, 0, 0, 0, 0\n0, 0, 0, 0]"] ;
591 -> 593 ;
594 [label="X[3] <= 243.5\ngini = 0.375\nsamples = 4\nvalue = [0, 1, 0, 0, 0, 0, 0, 0, 3, 0, 0, 0, 0, 0\n0, 0, 0, 0]"] ;
593 -> 594 ;
595 [label="gini = 0.0\nsamples = 1\nvalue = [0, 1, 0, 0, 0, 0, 0, 0, 0, 0, 0, 0, 0, 0\n0, 0, 0, 0]"] ;
594 -> 595 ;
596 [label="gini = 0.0\nsamples = 3\nvalue = [0, 0, 0, 0, 0, 0, 0, 0, 3, 0, 0, 0, 0, 0\n0, 0, 0, 0]"] ;
594 -> 596 ;
597 [label="gini = 0.0\nsamples = 1\nvalue = [0, 1, 0, 0, 0, 0, 0, 0, 0, 0, 0, 0, 0, 0\n0, 0, 0, 0]"] ;
593 -> 597 ;
598 [label="gini = 0.0\nsamples = 5\nvalue = [0, 5, 0, 0, 0, 0, 0, 0, 0, 0, 0, 0, 0, 0\n0, 0, 0, 0]"] ;
590 -> 598 ;
599 [label="X[1] <= 15.0\ngini = 0.72\nsamples = 5\nvalue = [0, 1, 0, 0, 0, 1, 1, 0, 2, 0, 0, 0, 0, 0\n0, 0, 0, 0]"] ;
551 -> 599 ;
600 [label="X[2] <= 93.0\ngini = 0.5\nsamples = 2\nvalue = [0, 0, 0, 0, 0, 1, 1, 0, 0, 0, 0, 0, 0, 0\n0, 0, 0, 0]"] ;
599 -> 600 ;
601 [label="gini = 0.0\nsamples = 1\nvalue = [0, 0, 0, 0, 0, 0, 1, 0, 0, 0, 0, 0, 0, 0\n0, 0, 0, 0]"] ;
600 -> 601 ;
602 [label="gini = 0.0\nsamples = 1\nvalue = [0, 0, 0, 0, 0, 1, 0, 0, 0, 0, 0, 0, 0, 0\n0, 0, 0, 0]"] ;
600 -> 602 ;
603 [label="X[4] <= 1770.0\ngini = 0.444\nsamples = 3\nvalue = [0, 1, 0, 0, 0, 0, 0, 0, 2, 0, 0, 0, 0, 0\n0, 0, 0, 0]"] ;
599 -> 603 ;
604 [label="gini = 0.0\nsamples = 1\nvalue = [0, 0, 0, 0, 0, 0, 0, 0, 1, 0, 0, 0, 0, 0\n0, 0, 0, 0]"] ;
603 -> 604 ;
605 [label="X[1] <= 17.0\ngini = 0.5\nsamples = 2\nvalue = [0, 1, 0, 0, 0, 0, 0, 0, 1, 0, 0, 0, 0, 0\n0, 0, 0, 0]"] ;
603 -> 605 ;
606 [label="gini = 0.0\nsamples = 1\nvalue = [0, 0, 0, 0, 0, 0, 0, 0, 1, 0, 0, 0, 0, 0\n0, 0, 0, 0]"] ;
605 -> 606 ;
607 [label="gini = 0.0\nsamples = 1\nvalue = [0, 1, 0, 0, 0, 0, 0, 0, 0, 0, 0, 0, 0, 0\n0, 0, 0, 0]"] ;
605 -> 607 ;
608 [label="X[4] <= 1805.0\ngini = 0.56\nsamples = 19\nvalue = [0, 0, 0, 0, 0, 0, 0, 0, 0, 6, 0, 11, 1, 0\n1, 0, 0, 0]"] ;
2 -> 608 ;
609 [label="X[10] <= 4.15\ngini = 0.485\nsamples = 13\nvalue = [0, 0, 0, 0, 0, 0, 0, 0, 0, 2, 0, 9, 1, 0\n1, 0, 0, 0]"] ;
608 -> 609 ;
610 [label="X[3] <= 223.0\ngini = 0.625\nsamples = 4\nvalue = [0, 0, 0, 0, 0, 0, 0, 0, 0, 2, 0, 1, 0, 0\n1, 0, 0, 0]"] ;
609 -> 610 ;
611 [label="gini = 0.0\nsamples = 2\nvalue = [0, 0, 0, 0, 0, 0, 0, 0, 0, 2, 0, 0, 0, 0\n0, 0, 0, 0]"] ;
610 -> 611 ;
612 [label="X[10] <= 3.85\ngini = 0.5\nsamples = 2\nvalue = [0, 0, 0, 0, 0, 0, 0, 0, 0, 0, 0, 1, 0, 0\n1, 0, 0, 0]"] ;
610 -> 612 ;
613 [label="gini = 0.0\nsamples = 1\nvalue = [0, 0, 0, 0, 0, 0, 0, 0, 0, 0, 0, 1, 0, 0\n0, 0, 0, 0]"] ;
612 -> 613 ;
614 [label="gini = 0.0\nsamples = 1\nvalue = [0, 0, 0, 0, 0, 0, 0, 0, 0, 0, 0, 0, 0, 0\n1, 0, 0, 0]"] ;
612 -> 614 ;
615 [label="X[8] <= 5592.5\ngini = 0.198\nsamples = 9\nvalue = [0, 0, 0, 0, 0, 0, 0, 0, 0, 0, 0, 8, 1, 0\n0, 0, 0, 0]"] ;
609 -> 615 ;
616 [label="X[5] <= 512.5\ngini = 0.5\nsamples = 2\nvalue = [0, 0, 0, 0, 0, 0, 0, 0, 0, 0, 0, 1, 1, 0\n0, 0, 0, 0]"] ;
615 -> 616 ;
617 [label="gini = 0.0\nsamples = 1\nvalue = [0, 0, 0, 0, 0, 0, 0, 0, 0, 0, 0, 1, 0, 0\n0, 0, 0, 0]"] ;
616 -> 617 ;
618 [label="gini = 0.0\nsamples = 1\nvalue = [0, 0, 0, 0, 0, 0, 0, 0, 0, 0, 0, 0, 1, 0\n0, 0, 0, 0]"] ;
616 -> 618 ;
619 [label="gini = 0.0\nsamples = 7\nvalue = [0, 0, 0, 0, 0, 0, 0, 0, 0, 0, 0, 7, 0, 0\n0, 0, 0, 0]"] ;
615 -> 619 ;
620 [label="X[3] <= 253.5\ngini = 0.444\nsamples = 6\nvalue = [0, 0, 0, 0, 0, 0, 0, 0, 0, 4, 0, 2, 0, 0\n0, 0, 0, 0]"] ;
608 -> 620 ;
621 [label="gini = 0.0\nsamples = 3\nvalue = [0, 0, 0, 0, 0, 0, 0, 0, 0, 3, 0, 0, 0, 0\n0, 0, 0, 0]"] ;
620 -> 621 ;
622 [label="X[1] <= 11.5\ngini = 0.444\nsamples = 3\nvalue = [0, 0, 0, 0, 0, 0, 0, 0, 0, 1, 0, 2, 0, 0\n0, 0, 0, 0]"] ;
620 -> 622 ;
623 [label="gini = 0.0\nsamples = 2\nvalue = [0, 0, 0, 0, 0, 0, 0, 0, 0, 0, 0, 2, 0, 0\n0, 0, 0, 0]"] ;
622 -> 623 ;
624 [label="gini = 0.0\nsamples = 1\nvalue = [0, 0, 0, 0, 0, 0, 0, 0, 0, 1, 0, 0, 0, 0\n0, 0, 0, 0]"] ;
622 -> 624 ;
625 [label="X[4] <= 1620.5\ngini = 0.448\nsamples = 11288\nvalue = [8187, 463, 48, 12, 370, 130, 174, 1717, 142, 25, 0\n12, 2, 0, 3, 0, 0, 3]"] ;
1 -> 625 ;
626 [label="X[7] <= 699.5\ngini = 0.645\nsamples = 4388\nvalue = [2246, 229, 24, 5, 301, 71, 126, 1270, 86, 18, 0\n7, 2, 0, 2, 0, 0, 1]"] ;
625 -> 626 ;
627 [label="X[10] <= 6.45\ngini = 0.69\nsamples = 1071\nvalue = [360, 52, 6, 2, 97, 20, 44, 459, 22, 5, 0, 2, 0\n0, 1, 0, 0, 1]"] ;
626 -> 627 ;
628 [label="X[0] <= 10.5\ngini = 0.815\nsamples = 135\nvalue = [36, 36, 4, 0, 7, 6, 20, 12, 11, 2, 0, 0, 0\n0, 1, 0, 0, 0]"] ;
627 -> 628 ;
629 [label="X[3] <= 114.5\ngini = 0.519\nsamples = 49\nvalue = [32, 0, 0, 0, 7, 0, 0, 9, 0, 0, 0, 0, 0, 0\n1, 0, 0, 0]"] ;
628 -> 629 ;
630 [label="gini = 0.0\nsamples = 5\nvalue = [0, 0, 0, 0, 5, 0, 0, 0, 0, 0, 0, 0, 0, 0\n0, 0, 0, 0]"] ;
629 -> 630 ;
631 [label="X[0] <= 3.5\ngini = 0.427\nsamples = 44\nvalue = [32, 0, 0, 0, 2, 0, 0, 9, 0, 0, 0, 0, 0, 0\n1, 0, 0, 0]"] ;
629 -> 631 ;
632 [label="X[1] <= 27.0\ngini = 0.444\nsamples = 3\nvalue = [0, 0, 0, 0, 0, 0, 0, 2, 0, 0, 0, 0, 0, 0\n1, 0, 0, 0]"] ;
631 -> 632 ;
633 [label="gini = 0.0\nsamples = 1\nvalue = [0, 0, 0, 0, 0, 0, 0, 0, 0, 0, 0, 0, 0, 0\n1, 0, 0, 0]"] ;
632 -> 633 ;
634 [label="gini = 0.0\nsamples = 2\nvalue = [0, 0, 0, 0, 0, 0, 0, 2, 0, 0, 0, 0, 0, 0\n0, 0, 0, 0]"] ;
632 -> 634 ;
635 [label="X[6] <= 47.5\ngini = 0.359\nsamples = 41\nvalue = [32, 0, 0, 0, 2, 0, 0, 7, 0, 0, 0, 0, 0, 0\n0, 0, 0, 0]"] ;
631 -> 635 ;
636 [label="X[10] <= 6.35\ngini = 0.329\nsamples = 40\nvalue = [32, 0, 0, 0, 1, 0, 0, 7, 0, 0, 0, 0, 0, 0\n0, 0, 0, 0]"] ;
635 -> 636 ;
637 [label="X[7] <= 694.5\ngini = 0.295\nsamples = 39\nvalue = [32, 0, 0, 0, 0, 0, 0, 7, 0, 0, 0, 0, 0, 0\n0, 0, 0, 0]"] ;
636 -> 637 ;
638 [label="X[4] <= 1084.5\ngini = 0.266\nsamples = 38\nvalue = [32, 0, 0, 0, 0, 0, 0, 6, 0, 0, 0, 0, 0, 0\n0, 0, 0, 0]"] ;
637 -> 638 ;
639 [label="gini = 0.0\nsamples = 12\nvalue = [12, 0, 0, 0, 0, 0, 0, 0, 0, 0, 0, 0, 0, 0\n0, 0, 0, 0]"] ;
638 -> 639 ;
640 [label="X[4] <= 1110.0\ngini = 0.355\nsamples = 26\nvalue = [20, 0, 0, 0, 0, 0, 0, 6, 0, 0, 0, 0, 0, 0\n0, 0, 0, 0]"] ;
638 -> 640 ;
641 [label="gini = 0.0\nsamples = 1\nvalue = [0, 0, 0, 0, 0, 0, 0, 1, 0, 0, 0, 0, 0, 0\n0, 0, 0, 0]"] ;
640 -> 641 ;
642 [label="X[7] <= 677.0\ngini = 0.32\nsamples = 25\nvalue = [20, 0, 0, 0, 0, 0, 0, 5, 0, 0, 0, 0, 0, 0\n0, 0, 0, 0]"] ;
640 -> 642 ;
643 [label="X[7] <= 669.0\ngini = 0.43\nsamples = 16\nvalue = [11, 0, 0, 0, 0, 0, 0, 5, 0, 0, 0, 0, 0, 0\n0, 0, 0, 0]"] ;
642 -> 643 ;
644 [label="X[10] <= 5.25\ngini = 0.26\nsamples = 13\nvalue = [11, 0, 0, 0, 0, 0, 0, 2, 0, 0, 0, 0, 0, 0\n0, 0, 0, 0]"] ;
643 -> 644 ;
645 [label="X[2] <= 70.5\ngini = 0.444\nsamples = 3\nvalue = [1, 0, 0, 0, 0, 0, 0, 2, 0, 0, 0, 0, 0, 0\n0, 0, 0, 0]"] ;
644 -> 645 ;
646 [label="gini = 0.0\nsamples = 2\nvalue = [0, 0, 0, 0, 0, 0, 0, 2, 0, 0, 0, 0, 0, 0\n0, 0, 0, 0]"] ;
645 -> 646 ;
647 [label="gini = 0.0\nsamples = 1\nvalue = [1, 0, 0, 0, 0, 0, 0, 0, 0, 0, 0, 0, 0, 0\n0, 0, 0, 0]"] ;
645 -> 647 ;
648 [label="gini = 0.0\nsamples = 10\nvalue = [10, 0, 0, 0, 0, 0, 0, 0, 0, 0, 0, 0, 0, 0\n0, 0, 0, 0]"] ;
644 -> 648 ;
649 [label="gini = 0.0\nsamples = 3\nvalue = [0, 0, 0, 0, 0, 0, 0, 3, 0, 0, 0, 0, 0, 0\n0, 0, 0, 0]"] ;
643 -> 649 ;
650 [label="gini = 0.0\nsamples = 9\nvalue = [9, 0, 0, 0, 0, 0, 0, 0, 0, 0, 0, 0, 0, 0\n0, 0, 0, 0]"] ;
642 -> 650 ;
651 [label="gini = 0.0\nsamples = 1\nvalue = [0, 0, 0, 0, 0, 0, 0, 1, 0, 0, 0, 0, 0, 0\n0, 0, 0, 0]"] ;
637 -> 651 ;
652 [label="gini = 0.0\nsamples = 1\nvalue = [0, 0, 0, 0, 1, 0, 0, 0, 0, 0, 0, 0, 0, 0\n0, 0, 0, 0]"] ;
636 -> 652 ;
653 [label="gini = 0.0\nsamples = 1\nvalue = [0, 0, 0, 0, 1, 0, 0, 0, 0, 0, 0, 0, 0, 0\n0, 0, 0, 0]"] ;
635 -> 653 ;
654 [label="X[9] <= 0.005\ngini = 0.743\nsamples = 86\nvalue = [4, 36, 4, 0, 0, 6, 20, 3, 11, 2, 0, 0, 0, 0\n0, 0, 0, 0]"] ;
628 -> 654 ;
655 [label="X[1] <= 28.5\ngini = 0.732\nsamples = 84\nvalue = [4, 36, 4, 0, 0, 6, 20, 3, 11, 0, 0, 0, 0, 0\n0, 0, 0, 0]"] ;
654 -> 655 ;
656 [label="X[3] <= 145.5\ngini = 0.711\nsamples = 72\nvalue = [2, 34, 4, 0, 0, 6, 14, 3, 9, 0, 0, 0, 0, 0\n0, 0, 0, 0]"] ;
655 -> 656 ;
657 [label="X[2] <= 59.5\ngini = 0.75\nsamples = 8\nvalue = [0, 1, 0, 0, 0, 1, 2, 1, 3, 0, 0, 0, 0, 0\n0, 0, 0, 0]"] ;
656 -> 657 ;
658 [label="X[8] <= 4486.0\ngini = 0.444\nsamples = 3\nvalue = [0, 0, 0, 0, 0, 0, 2, 1, 0, 0, 0, 0, 0, 0\n0, 0, 0, 0]"] ;
657 -> 658 ;
659 [label="gini = 0.0\nsamples = 2\nvalue = [0, 0, 0, 0, 0, 0, 2, 0, 0, 0, 0, 0, 0, 0\n0, 0, 0, 0]"] ;
658 -> 659 ;
660 [label="gini = 0.0\nsamples = 1\nvalue = [0, 0, 0, 0, 0, 0, 0, 1, 0, 0, 0, 0, 0, 0\n0, 0, 0, 0]"] ;
658 -> 660 ;
661 [label="X[7] <= 622.5\ngini = 0.56\nsamples = 5\nvalue = [0, 1, 0, 0, 0, 1, 0, 0, 3, 0, 0, 0, 0, 0\n0, 0, 0, 0]"] ;
657 -> 661 ;
662 [label="gini = 0.0\nsamples = 3\nvalue = [0, 0, 0, 0, 0, 0, 0, 0, 3, 0, 0, 0, 0, 0\n0, 0, 0, 0]"] ;
661 -> 662 ;
663 [label="X[4] <= 937.0\ngini = 0.5\nsamples = 2\nvalue = [0, 1, 0, 0, 0, 1, 0, 0, 0, 0, 0, 0, 0, 0\n0, 0, 0, 0]"] ;
661 -> 663 ;
664 [label="gini = 0.0\nsamples = 1\nvalue = [0, 1, 0, 0, 0, 0, 0, 0, 0, 0, 0, 0, 0, 0\n0, 0, 0, 0]"] ;
663 -> 664 ;
665 [label="gini = 0.0\nsamples = 1\nvalue = [0, 0, 0, 0, 0, 1, 0, 0, 0, 0, 0, 0, 0, 0\n0, 0, 0, 0]"] ;
663 -> 665 ;
666 [label="X[4] <= 1182.0\ngini = 0.678\nsamples = 64\nvalue = [2, 33, 4, 0, 0, 5, 12, 2, 6, 0, 0, 0, 0, 0\n0, 0, 0, 0]"] ;
656 -> 666 ;
667 [label="X[1] <= 22.5\ngini = 0.34\nsamples = 10\nvalue = [0, 8, 0, 0, 0, 0, 0, 1, 1, 0, 0, 0, 0, 0\n0, 0, 0, 0]"] ;
666 -> 667 ;
668 [label="X[4] <= 1134.0\ngini = 0.5\nsamples = 2\nvalue = [0, 1, 0, 0, 0, 0, 0, 1, 0, 0, 0, 0, 0, 0\n0, 0, 0, 0]"] ;
667 -> 668 ;
669 [label="gini = 0.0\nsamples = 1\nvalue = [0, 0, 0, 0, 0, 0, 0, 1, 0, 0, 0, 0, 0, 0\n0, 0, 0, 0]"] ;
668 -> 669 ;
670 [label="gini = 0.0\nsamples = 1\nvalue = [0, 1, 0, 0, 0, 0, 0, 0, 0, 0, 0, 0, 0, 0\n0, 0, 0, 0]"] ;
668 -> 670 ;
671 [label="X[0] <= 12.0\ngini = 0.219\nsamples = 8\nvalue = [0, 7, 0, 0, 0, 0, 0, 0, 1, 0, 0, 0, 0, 0\n0, 0, 0, 0]"] ;
667 -> 671 ;
672 [label="gini = 0.0\nsamples = 6\nvalue = [0, 6, 0, 0, 0, 0, 0, 0, 0, 0, 0, 0, 0, 0\n0, 0, 0, 0]"] ;
671 -> 672 ;
673 [label="X[10] <= 6.15\ngini = 0.5\nsamples = 2\nvalue = [0, 1, 0, 0, 0, 0, 0, 0, 1, 0, 0, 0, 0, 0\n0, 0, 0, 0]"] ;
671 -> 673 ;
674 [label="gini = 0.0\nsamples = 1\nvalue = [0, 0, 0, 0, 0, 0, 0, 0, 1, 0, 0, 0, 0, 0\n0, 0, 0, 0]"] ;
673 -> 674 ;
675 [label="gini = 0.0\nsamples = 1\nvalue = [0, 1, 0, 0, 0, 0, 0, 0, 0, 0, 0, 0, 0, 0\n0, 0, 0, 0]"] ;
673 -> 675 ;
676 [label="X[4] <= 1216.5\ngini = 0.712\nsamples = 54\nvalue = [2, 25, 4, 0, 0, 5, 12, 1, 5, 0, 0, 0, 0, 0\n0, 0, 0, 0]"] ;
666 -> 676 ;
677 [label="X[3] <= 162.5\ngini = 0.75\nsamples = 4\nvalue = [1, 0, 0, 0, 0, 1, 1, 0, 1, 0, 0, 0, 0, 0\n0, 0, 0, 0]"] ;
676 -> 677 ;
678 [label="gini = 0.0\nsamples = 1\nvalue = [1, 0, 0, 0, 0, 0, 0, 0, 0, 0, 0, 0, 0, 0\n0, 0, 0, 0]"] ;
677 -> 678 ;
679 [label="X[7] <= 589.0\ngini = 0.667\nsamples = 3\nvalue = [0, 0, 0, 0, 0, 1, 1, 0, 1, 0, 0, 0, 0, 0\n0, 0, 0, 0]"] ;
677 -> 679 ;
680 [label="gini = 0.0\nsamples = 1\nvalue = [0, 0, 0, 0, 0, 0, 1, 0, 0, 0, 0, 0, 0, 0\n0, 0, 0, 0]"] ;
679 -> 680 ;
681 [label="X[1] <= 22.5\ngini = 0.5\nsamples = 2\nvalue = [0, 0, 0, 0, 0, 1, 0, 0, 1, 0, 0, 0, 0, 0\n0, 0, 0, 0]"] ;
679 -> 681 ;
682 [label="gini = 0.0\nsamples = 1\nvalue = [0, 0, 0, 0, 0, 0, 0, 0, 1, 0, 0, 0, 0, 0\n0, 0, 0, 0]"] ;
681 -> 682 ;
683 [label="gini = 0.0\nsamples = 1\nvalue = [0, 0, 0, 0, 0, 1, 0, 0, 0, 0, 0, 0, 0, 0\n0, 0, 0, 0]"] ;
681 -> 683 ;
684 [label="X[8] <= 4618.5\ngini = 0.682\nsamples = 50\nvalue = [1, 25, 4, 0, 0, 4, 11, 1, 4, 0, 0, 0, 0, 0\n0, 0, 0, 0]"] ;
676 -> 684 ;
685 [label="gini = 0.0\nsamples = 4\nvalue = [0, 4, 0, 0, 0, 0, 0, 0, 0, 0, 0, 0, 0, 0\n0, 0, 0, 0]"] ;
684 -> 685 ;
686 [label="X[8] <= 4672.5\ngini = 0.711\nsamples = 46\nvalue = [1, 21, 4, 0, 0, 4, 11, 1, 4, 0, 0, 0, 0, 0\n0, 0, 0, 0]"] ;
684 -> 686 ;
687 [label="gini = 0.0\nsamples = 2\nvalue = [0, 0, 0, 0, 0, 0, 2, 0, 0, 0, 0, 0, 0, 0\n0, 0, 0, 0]"] ;
686 -> 687 ;
688 [label="X[8] <= 5101.5\ngini = 0.705\nsamples = 44\nvalue = [1, 21, 4, 0, 0, 4, 9, 1, 4, 0, 0, 0, 0, 0\n0, 0, 0, 0]"] ;
686 -> 688 ;
689 [label="X[8] <= 5099.5\ngini = 0.735\nsamples = 34\nvalue = [1, 14, 3, 0, 0, 3, 9, 1, 3, 0, 0, 0, 0, 0\n0, 0, 0, 0]"] ;
688 -> 689 ;
690 [label="X[2] <= 70.5\ngini = 0.716\nsamples = 30\nvalue = [1, 14, 3, 0, 0, 3, 6, 1, 2, 0, 0, 0, 0, 0\n0, 0, 0, 0]"] ;
689 -> 690 ;
691 [label="X[3] <= 168.5\ngini = 0.722\nsamples = 6\nvalue = [0, 1, 2, 0, 0, 0, 2, 0, 1, 0, 0, 0, 0, 0\n0, 0, 0, 0]"] ;
690 -> 691 ;
692 [label="gini = 0.0\nsamples = 1\nvalue = [0, 1, 0, 0, 0, 0, 0, 0, 0, 0, 0, 0, 0, 0\n0, 0, 0, 0]"] ;
691 -> 692 ;
693 [label="X[0] <= 12.0\ngini = 0.64\nsamples = 5\nvalue = [0, 0, 2, 0, 0, 0, 2, 0, 1, 0, 0, 0, 0, 0\n0, 0, 0, 0]"] ;
691 -> 693 ;
694 [label="X[8] <= 4995.0\ngini = 0.5\nsamples = 4\nvalue = [0, 0, 2, 0, 0, 0, 2, 0, 0, 0, 0, 0, 0, 0\n0, 0, 0, 0]"] ;
693 -> 694 ;
695 [label="gini = 0.0\nsamples = 1\nvalue = [0, 0, 0, 0, 0, 0, 1, 0, 0, 0, 0, 0, 0, 0\n0, 0, 0, 0]"] ;
694 -> 695 ;
696 [label="X[5] <= 506.0\ngini = 0.444\nsamples = 3\nvalue = [0, 0, 2, 0, 0, 0, 1, 0, 0, 0, 0, 0, 0, 0\n0, 0, 0, 0]"] ;
694 -> 696 ;
697 [label="gini = 0.0\nsamples = 1\nvalue = [0, 0, 0, 0, 0, 0, 1, 0, 0, 0, 0, 0, 0, 0\n0, 0, 0, 0]"] ;
696 -> 697 ;
698 [label="gini = 0.0\nsamples = 2\nvalue = [0, 0, 2, 0, 0, 0, 0, 0, 0, 0, 0, 0, 0, 0\n0, 0, 0, 0]"] ;
696 -> 698 ;
699 [label="gini = 0.0\nsamples = 1\nvalue = [0, 0, 0, 0, 0, 0, 0, 0, 1, 0, 0, 0, 0, 0\n0, 0, 0, 0]"] ;
693 -> 699 ;
700 [label="X[5] <= 694.5\ngini = 0.656\nsamples = 24\nvalue = [1, 13, 1, 0, 0, 3, 4, 1, 1, 0, 0, 0, 0, 0\n0, 0, 0, 0]"] ;
690 -> 700 ;
701 [label="X[5] <= 500.5\ngini = 0.37\nsamples = 9\nvalue = [0, 7, 1, 0, 0, 0, 1, 0, 0, 0, 0, 0, 0, 0\n0, 0, 0, 0]"] ;
700 -> 701 ;
702 [label="gini = 0.0\nsamples = 1\nvalue = [0, 0, 0, 0, 0, 0, 1, 0, 0, 0, 0, 0, 0, 0\n0, 0, 0, 0]"] ;
701 -> 702 ;
703 [label="X[5] <= 670.0\ngini = 0.219\nsamples = 8\nvalue = [0, 7, 1, 0, 0, 0, 0, 0, 0, 0, 0, 0, 0, 0\n0, 0, 0, 0]"] ;
701 -> 703 ;
704 [label="gini = 0.0\nsamples = 6\nvalue = [0, 6, 0, 0, 0, 0, 0, 0, 0, 0, 0, 0, 0, 0\n0, 0, 0, 0]"] ;
703 -> 704 ;
705 [label="X[2] <= 86.5\ngini = 0.5\nsamples = 2\nvalue = [0, 1, 1, 0, 0, 0, 0, 0, 0, 0, 0, 0, 0, 0\n0, 0, 0, 0]"] ;
703 -> 705 ;
706 [label="gini = 0.0\nsamples = 1\nvalue = [0, 0, 1, 0, 0, 0, 0, 0, 0, 0, 0, 0, 0, 0\n0, 0, 0, 0]"] ;
705 -> 706 ;
707 [label="gini = 0.0\nsamples = 1\nvalue = [0, 1, 0, 0, 0, 0, 0, 0, 0, 0, 0, 0, 0, 0\n0, 0, 0, 0]"] ;
705 -> 707 ;
708 [label="X[10] <= 6.2\ngini = 0.747\nsamples = 15\nvalue = [1, 6, 0, 0, 0, 3, 3, 1, 1, 0, 0, 0, 0, 0\n0, 0, 0, 0]"] ;
700 -> 708 ;
709 [label="X[2] <= 81.0\ngini = 0.765\nsamples = 9\nvalue = [1, 2, 0, 0, 0, 3, 2, 1, 0, 0, 0, 0, 0, 0\n0, 0, 0, 0]"] ;
708 -> 709 ;
710 [label="gini = 0.0\nsamples = 2\nvalue = [0, 0, 0, 0, 0, 0, 2, 0, 0, 0, 0, 0, 0, 0\n0, 0, 0, 0]"] ;
709 -> 710 ;
711 [label="X[8] <= 5097.5\ngini = 0.694\nsamples = 7\nvalue = [1, 2, 0, 0, 0, 3, 0, 1, 0, 0, 0, 0, 0, 0\n0, 0, 0, 0]"] ;
709 -> 711 ;
712 [label="X[5] <= 722.0\ngini = 0.375\nsamples = 4\nvalue = [0, 1, 0, 0, 0, 3, 0, 0, 0, 0, 0, 0, 0, 0\n0, 0, 0, 0]"] ;
711 -> 712 ;
713 [label="gini = 0.0\nsamples = 1\nvalue = [0, 1, 0, 0, 0, 0, 0, 0, 0, 0, 0, 0, 0, 0\n0, 0, 0, 0]"] ;
712 -> 713 ;
714 [label="gini = 0.0\nsamples = 3\nvalue = [0, 0, 0, 0, 0, 3, 0, 0, 0, 0, 0, 0, 0, 0\n0, 0, 0, 0]"] ;
712 -> 714 ;
715 [label="X[4] <= 1495.5\ngini = 0.667\nsamples = 3\nvalue = [1, 1, 0, 0, 0, 0, 0, 1, 0, 0, 0, 0, 0, 0\n0, 0, 0, 0]"] ;
711 -> 715 ;
716 [label="gini = 0.0\nsamples = 1\nvalue = [0, 0, 0, 0, 0, 0, 0, 1, 0, 0, 0, 0, 0, 0\n0, 0, 0, 0]"] ;
715 -> 716 ;
717 [label="X[8] <= 5098.5\ngini = 0.5\nsamples = 2\nvalue = [1, 1, 0, 0, 0, 0, 0, 0, 0, 0, 0, 0, 0, 0\n0, 0, 0, 0]"] ;
715 -> 717 ;
718 [label="gini = 0.0\nsamples = 1\nvalue = [1, 0, 0, 0, 0, 0, 0, 0, 0, 0, 0, 0, 0, 0\n0, 0, 0, 0]"] ;
717 -> 718 ;
719 [label="gini = 0.0\nsamples = 1\nvalue = [0, 1, 0, 0, 0, 0, 0, 0, 0, 0, 0, 0, 0, 0\n0, 0, 0, 0]"] ;
717 -> 719 ;
720 [label="X[1] <= 9.5\ngini = 0.5\nsamples = 6\nvalue = [0, 4, 0, 0, 0, 0, 1, 0, 1, 0, 0, 0, 0, 0\n0, 0, 0, 0]"] ;
708 -> 720 ;
721 [label="gini = 0.0\nsamples = 1\nvalue = [0, 0, 0, 0, 0, 0, 1, 0, 0, 0, 0, 0, 0, 0\n0, 0, 0, 0]"] ;
720 -> 721 ;
722 [label="X[4] <= 1287.5\ngini = 0.32\nsamples = 5\nvalue = [0, 4, 0, 0, 0, 0, 0, 0, 1, 0, 0, 0, 0, 0\n0, 0, 0, 0]"] ;
720 -> 722 ;
723 [label="gini = 0.0\nsamples = 1\nvalue = [0, 0, 0, 0, 0, 0, 0, 0, 1, 0, 0, 0, 0, 0\n0, 0, 0, 0]"] ;
722 -> 723 ;
724 [label="gini = 0.0\nsamples = 4\nvalue = [0, 4, 0, 0, 0, 0, 0, 0, 0, 0, 0, 0, 0, 0\n0, 0, 0, 0]"] ;
722 -> 724 ;
725 [label="X[4] <= 1502.0\ngini = 0.375\nsamples = 4\nvalue = [0, 0, 0, 0, 0, 0, 3, 0, 1, 0, 0, 0, 0, 0\n0, 0, 0, 0]"] ;
689 -> 725 ;
726 [label="gini = 0.0\nsamples = 3\nvalue = [0, 0, 0, 0, 0, 0, 3, 0, 0, 0, 0, 0, 0, 0\n0, 0, 0, 0]"] ;
725 -> 726 ;
727 [label="gini = 0.0\nsamples = 1\nvalue = [0, 0, 0, 0, 0, 0, 0, 0, 1, 0, 0, 0, 0, 0\n0, 0, 0, 0]"] ;
725 -> 727 ;
728 [label="X[10] <= 5.8\ngini = 0.48\nsamples = 10\nvalue = [0, 7, 1, 0, 0, 1, 0, 0, 1, 0, 0, 0, 0, 0\n0, 0, 0, 0]"] ;
688 -> 728 ;
729 [label="X[1] <= 7.5\ngini = 0.37\nsamples = 9\nvalue = [0, 7, 1, 0, 0, 0, 0, 0, 1, 0, 0, 0, 0, 0\n0, 0, 0, 0]"] ;
728 -> 729 ;
730 [label="gini = 0.0\nsamples = 1\nvalue = [0, 0, 1, 0, 0, 0, 0, 0, 0, 0, 0, 0, 0, 0\n0, 0, 0, 0]"] ;
729 -> 730 ;
731 [label="X[5] <= 632.0\ngini = 0.219\nsamples = 8\nvalue = [0, 7, 0, 0, 0, 0, 0, 0, 1, 0, 0, 0, 0, 0\n0, 0, 0, 0]"] ;
729 -> 731 ;
732 [label="gini = 0.0\nsamples = 6\nvalue = [0, 6, 0, 0, 0, 0, 0, 0, 0, 0, 0, 0, 0, 0\n0, 0, 0, 0]"] ;
731 -> 732 ;
733 [label="X[3] <= 203.0\ngini = 0.5\nsamples = 2\nvalue = [0, 1, 0, 0, 0, 0, 0, 0, 1, 0, 0, 0, 0, 0\n0, 0, 0, 0]"] ;
731 -> 733 ;
734 [label="gini = 0.0\nsamples = 1\nvalue = [0, 0, 0, 0, 0, 0, 0, 0, 1, 0, 0, 0, 0, 0\n0, 0, 0, 0]"] ;
733 -> 734 ;
735 [label="gini = 0.0\nsamples = 1\nvalue = [0, 1, 0, 0, 0, 0, 0, 0, 0, 0, 0, 0, 0, 0\n0, 0, 0, 0]"] ;
733 -> 735 ;
736 [label="gini = 0.0\nsamples = 1\nvalue = [0, 0, 0, 0, 0, 1, 0, 0, 0, 0, 0, 0, 0, 0\n0, 0, 0, 0]"] ;
728 -> 736 ;
737 [label="X[3] <= 170.5\ngini = 0.667\nsamples = 12\nvalue = [2, 2, 0, 0, 0, 0, 6, 0, 2, 0, 0, 0, 0, 0\n0, 0, 0, 0]"] ;
655 -> 737 ;
738 [label="X[10] <= 5.75\ngini = 0.741\nsamples = 9\nvalue = [2, 2, 0, 0, 0, 0, 3, 0, 2, 0, 0, 0, 0, 0\n0, 0, 0, 0]"] ;
737 -> 738 ;
739 [label="X[7] <= 442.5\ngini = 0.611\nsamples = 6\nvalue = [0, 1, 0, 0, 0, 0, 3, 0, 2, 0, 0, 0, 0, 0\n0, 0, 0, 0]"] ;
738 -> 739 ;
740 [label="gini = 0.0\nsamples = 1\nvalue = [0, 1, 0, 0, 0, 0, 0, 0, 0, 0, 0, 0, 0, 0\n0, 0, 0, 0]"] ;
739 -> 740 ;
741 [label="X[3] <= 132.0\ngini = 0.48\nsamples = 5\nvalue = [0, 0, 0, 0, 0, 0, 3, 0, 2, 0, 0, 0, 0, 0\n0, 0, 0, 0]"] ;
739 -> 741 ;
742 [label="gini = 0.0\nsamples = 2\nvalue = [0, 0, 0, 0, 0, 0, 2, 0, 0, 0, 0, 0, 0, 0\n0, 0, 0, 0]"] ;
741 -> 742 ;
743 [label="X[1] <= 29.5\ngini = 0.444\nsamples = 3\nvalue = [0, 0, 0, 0, 0, 0, 1, 0, 2, 0, 0, 0, 0, 0\n0, 0, 0, 0]"] ;
741 -> 743 ;
744 [label="gini = 0.0\nsamples = 1\nvalue = [0, 0, 0, 0, 0, 0, 1, 0, 0, 0, 0, 0, 0, 0\n0, 0, 0, 0]"] ;
743 -> 744 ;
745 [label="gini = 0.0\nsamples = 2\nvalue = [0, 0, 0, 0, 0, 0, 0, 0, 2, 0, 0, 0, 0, 0\n0, 0, 0, 0]"] ;
743 -> 745 ;
746 [label="X[3] <= 147.5\ngini = 0.444\nsamples = 3\nvalue = [2, 1, 0, 0, 0, 0, 0, 0, 0, 0, 0, 0, 0, 0\n0, 0, 0, 0]"] ;
738 -> 746 ;
747 [label="gini = 0.0\nsamples = 2\nvalue = [2, 0, 0, 0, 0, 0, 0, 0, 0, 0, 0, 0, 0, 0\n0, 0, 0, 0]"] ;
746 -> 747 ;
748 [label="gini = 0.0\nsamples = 1\nvalue = [0, 1, 0, 0, 0, 0, 0, 0, 0, 0, 0, 0, 0, 0\n0, 0, 0, 0]"] ;
746 -> 748 ;
749 [label="gini = 0.0\nsamples = 3\nvalue = [0, 0, 0, 0, 0, 0, 3, 0, 0, 0, 0, 0, 0, 0\n0, 0, 0, 0]"] ;
737 -> 749 ;
750 [label="gini = 0.0\nsamples = 2\nvalue = [0, 0, 0, 0, 0, 0, 0, 0, 0, 2, 0, 0, 0, 0\n0, 0, 0, 0]"] ;
654 -> 750 ;
751 [label="X[0] <= 8.5\ngini = 0.642\nsamples = 936\nvalue = [324, 16, 2, 2, 90, 14, 24, 447, 11, 3, 0, 2, 0\n0, 0, 0, 0, 1]"] ;
627 -> 751 ;
752 [label="X[2] <= 59.5\ngini = 0.57\nsamples = 475\nvalue = [133, 2, 1, 2, 60, 0, 1, 275, 0, 0, 0, 0, 0\n0, 0, 0, 0, 1]"] ;
751 -> 752 ;
753 [label="X[0] <= 3.5\ngini = 0.672\nsamples = 73\nvalue = [21, 0, 1, 0, 27, 0, 0, 24, 0, 0, 0, 0, 0, 0\n0, 0, 0, 0]"] ;
752 -> 753 ;
754 [label="X[0] <= 1.5\ngini = 0.558\nsamples = 35\nvalue = [8, 0, 0, 0, 21, 0, 0, 6, 0, 0, 0, 0, 0, 0\n0, 0, 0, 0]"] ;
753 -> 754 ;
755 [label="X[1] <= 28.5\ngini = 0.32\nsamples = 5\nvalue = [4, 0, 0, 0, 1, 0, 0, 0, 0, 0, 0, 0, 0, 0\n0, 0, 0, 0]"] ;
754 -> 755 ;
756 [label="gini = 0.0\nsamples = 3\nvalue = [3, 0, 0, 0, 0, 0, 0, 0, 0, 0, 0, 0, 0, 0\n0, 0, 0, 0]"] ;
755 -> 756 ;
757 [label="X[3] <= 146.0\ngini = 0.5\nsamples = 2\nvalue = [1, 0, 0, 0, 1, 0, 0, 0, 0, 0, 0, 0, 0, 0\n0, 0, 0, 0]"] ;
755 -> 757 ;
758 [label="gini = 0.0\nsamples = 1\nvalue = [0, 0, 0, 0, 1, 0, 0, 0, 0, 0, 0, 0, 0, 0\n0, 0, 0, 0]"] ;
757 -> 758 ;
759 [label="gini = 0.0\nsamples = 1\nvalue = [1, 0, 0, 0, 0, 0, 0, 0, 0, 0, 0, 0, 0, 0\n0, 0, 0, 0]"] ;
757 -> 759 ;
760 [label="X[6] <= 60.0\ngini = 0.498\nsamples = 30\nvalue = [4, 0, 0, 0, 20, 0, 0, 6, 0, 0, 0, 0, 0, 0\n0, 0, 0, 0]"] ;
754 -> 760 ;
761 [label="X[5] <= 326.5\ngini = 0.449\nsamples = 28\nvalue = [4, 0, 0, 0, 20, 0, 0, 4, 0, 0, 0, 0, 0, 0\n0, 0, 0, 0]"] ;
760 -> 761 ;
762 [label="X[3] <= 134.5\ngini = 0.611\nsamples = 6\nvalue = [1, 0, 0, 0, 2, 0, 0, 3, 0, 0, 0, 0, 0, 0\n0, 0, 0, 0]"] ;
761 -> 762 ;
763 [label="gini = 0.0\nsamples = 2\nvalue = [0, 0, 0, 0, 2, 0, 0, 0, 0, 0, 0, 0, 0, 0\n0, 0, 0, 0]"] ;
762 -> 763 ;
764 [label="X[8] <= 4748.0\ngini = 0.375\nsamples = 4\nvalue = [1, 0, 0, 0, 0, 0, 0, 3, 0, 0, 0, 0, 0, 0\n0, 0, 0, 0]"] ;
762 -> 764 ;
765 [label="gini = 0.0\nsamples = 2\nvalue = [0, 0, 0, 0, 0, 0, 0, 2, 0, 0, 0, 0, 0, 0\n0, 0, 0, 0]"] ;
764 -> 765 ;
766 [label="X[3] <= 147.0\ngini = 0.5\nsamples = 2\nvalue = [1, 0, 0, 0, 0, 0, 0, 1, 0, 0, 0, 0, 0, 0\n0, 0, 0, 0]"] ;
764 -> 766 ;
767 [label="gini = 0.0\nsamples = 1\nvalue = [0, 0, 0, 0, 0, 0, 0, 1, 0, 0, 0, 0, 0, 0\n0, 0, 0, 0]"] ;
766 -> 767 ;
768 [label="gini = 0.0\nsamples = 1\nvalue = [1, 0, 0, 0, 0, 0, 0, 0, 0, 0, 0, 0, 0, 0\n0, 0, 0, 0]"] ;
766 -> 768 ;
769 [label="X[9] <= 0.09\ngini = 0.31\nsamples = 22\nvalue = [3, 0, 0, 0, 18, 0, 0, 1, 0, 0, 0, 0, 0, 0\n0, 0, 0, 0]"] ;
761 -> 769 ;
770 [label="X[7] <= 473.0\ngini = 0.254\nsamples = 21\nvalue = [2, 0, 0, 0, 18, 0, 0, 1, 0, 0, 0, 0, 0, 0\n0, 0, 0, 0]"] ;
769 -> 770 ;
771 [label="X[1] <= 30.5\ngini = 0.667\nsamples = 3\nvalue = [1, 0, 0, 0, 1, 0, 0, 1, 0, 0, 0, 0, 0, 0\n0, 0, 0, 0]"] ;
770 -> 771 ;
772 [label="X[8] <= 3264.5\ngini = 0.5\nsamples = 2\nvalue = [1, 0, 0, 0, 0, 0, 0, 1, 0, 0, 0, 0, 0, 0\n0, 0, 0, 0]"] ;
771 -> 772 ;
773 [label="gini = 0.0\nsamples = 1\nvalue = [0, 0, 0, 0, 0, 0, 0, 1, 0, 0, 0, 0, 0, 0\n0, 0, 0, 0]"] ;
772 -> 773 ;
774 [label="gini = 0.0\nsamples = 1\nvalue = [1, 0, 0, 0, 0, 0, 0, 0, 0, 0, 0, 0, 0, 0\n0, 0, 0, 0]"] ;
772 -> 774 ;
775 [label="gini = 0.0\nsamples = 1\nvalue = [0, 0, 0, 0, 1, 0, 0, 0, 0, 0, 0, 0, 0, 0\n0, 0, 0, 0]"] ;
771 -> 775 ;
776 [label="X[4] <= 1175.5\ngini = 0.105\nsamples = 18\nvalue = [1, 0, 0, 0, 17, 0, 0, 0, 0, 0, 0, 0, 0, 0\n0, 0, 0, 0]"] ;
770 -> 776 ;
777 [label="gini = 0.0\nsamples = 16\nvalue = [0, 0, 0, 0, 16, 0, 0, 0, 0, 0, 0, 0, 0, 0\n0, 0, 0, 0]"] ;
776 -> 777 ;
778 [label="X[3] <= 162.0\ngini = 0.5\nsamples = 2\nvalue = [1, 0, 0, 0, 1, 0, 0, 0, 0, 0, 0, 0, 0, 0\n0, 0, 0, 0]"] ;
776 -> 778 ;
779 [label="gini = 0.0\nsamples = 1\nvalue = [1, 0, 0, 0, 0, 0, 0, 0, 0, 0, 0, 0, 0, 0\n0, 0, 0, 0]"] ;
778 -> 779 ;
780 [label="gini = 0.0\nsamples = 1\nvalue = [0, 0, 0, 0, 1, 0, 0, 0, 0, 0, 0, 0, 0, 0\n0, 0, 0, 0]"] ;
778 -> 780 ;
781 [label="gini = 0.0\nsamples = 1\nvalue = [1, 0, 0, 0, 0, 0, 0, 0, 0, 0, 0, 0, 0, 0\n0, 0, 0, 0]"] ;
769 -> 781 ;
782 [label="gini = 0.0\nsamples = 2\nvalue = [0, 0, 0, 0, 0, 0, 0, 2, 0, 0, 0, 0, 0, 0\n0, 0, 0, 0]"] ;
760 -> 782 ;
783 [label="X[8] <= 4941.5\ngini = 0.633\nsamples = 38\nvalue = [13, 0, 1, 0, 6, 0, 0, 18, 0, 0, 0, 0, 0, 0\n0, 0, 0, 0]"] ;
753 -> 783 ;
784 [label="X[1] <= 28.5\ngini = 0.558\nsamples = 30\nvalue = [8, 0, 1, 0, 3, 0, 0, 18, 0, 0, 0, 0, 0, 0\n0, 0, 0, 0]"] ;
783 -> 784 ;
785 [label="X[4] <= 989.0\ngini = 0.632\nsamples = 19\nvalue = [8, 0, 1, 0, 2, 0, 0, 8, 0, 0, 0, 0, 0, 0\n0, 0, 0, 0]"] ;
784 -> 785 ;
786 [label="X[0] <= 7.5\ngini = 0.406\nsamples = 8\nvalue = [6, 0, 0, 0, 1, 0, 0, 1, 0, 0, 0, 0, 0, 0\n0, 0, 0, 0]"] ;
785 -> 786 ;
787 [label="X[8] <= 3902.5\ngini = 0.245\nsamples = 7\nvalue = [6, 0, 0, 0, 0, 0, 0, 1, 0, 0, 0, 0, 0, 0\n0, 0, 0, 0]"] ;
786 -> 787 ;
788 [label="X[8] <= 3627.5\ngini = 0.5\nsamples = 2\nvalue = [1, 0, 0, 0, 0, 0, 0, 1, 0, 0, 0, 0, 0, 0\n0, 0, 0, 0]"] ;
787 -> 788 ;
789 [label="gini = 0.0\nsamples = 1\nvalue = [1, 0, 0, 0, 0, 0, 0, 0, 0, 0, 0, 0, 0, 0\n0, 0, 0, 0]"] ;
788 -> 789 ;
790 [label="gini = 0.0\nsamples = 1\nvalue = [0, 0, 0, 0, 0, 0, 0, 1, 0, 0, 0, 0, 0, 0\n0, 0, 0, 0]"] ;
788 -> 790 ;
791 [label="gini = 0.0\nsamples = 5\nvalue = [5, 0, 0, 0, 0, 0, 0, 0, 0, 0, 0, 0, 0, 0\n0, 0, 0, 0]"] ;
787 -> 791 ;
792 [label="gini = 0.0\nsamples = 1\nvalue = [0, 0, 0, 0, 1, 0, 0, 0, 0, 0, 0, 0, 0, 0\n0, 0, 0, 0]"] ;
786 -> 792 ;
793 [label="X[2] <= 56.5\ngini = 0.545\nsamples = 11\nvalue = [2, 0, 1, 0, 1, 0, 0, 7, 0, 0, 0, 0, 0, 0\n0, 0, 0, 0]"] ;
785 -> 793 ;
